{"learner":{"attributes":{"scikit_learn":"{\"n_estimators\": 100, \"objective\": \"reg:squarederror\", \"max_depth\": 3, \"learning_rate\": null, \"verbosity\": null, \"booster\": null, \"tree_method\": null, \"gamma\": 0, \"min_child_weight\": null, \"max_delta_step\": null, \"subsample\": null, \"colsample_bytree\": null, \"colsample_bylevel\": null, \"colsample_bynode\": null, \"reg_alpha\": null, \"reg_lambda\": 1, \"scale_pos_weight\": null, \"base_score\": null, \"missing\": NaN, \"num_parallel_tree\": null, \"kwargs\": {}, \"random_state\": null, \"n_jobs\": null, \"monotone_constraints\": null, \"interaction_constraints\": null, \"importance_type\": \"gain\", \"gpu_id\": null, \"validate_parameters\": null, \"n_features_in_\": 13, \"type\": \"XGBRegressor\"}"},"gradient_booster":{"model":{"gbtree_model_param":{"num_trees":"100","size_leaf_vector":"0"},"tree_info":[0,0,0,0,0,0,0,0,0,0,0,0,0,0,0,0,0,0,0,0,0,0,0,0,0,0,0,0,0,0,0,0,0,0,0,0,0,0,0,0,0,0,0,0,0,0,0,0,0,0,0,0,0,0,0,0,0,0,0,0,0,0,0,0,0,0,0,0,0,0,0,0,0,0,0,0,0,0,0,0,0,0,0,0,0,0,0,0,0,0,0,0,0,0,0,0,0,0,0,0],"trees":[{"base_weights":[2.2077942E1,1.8966429E1,3.599836E1,2.2424026E1,1.462441E1,3.097E1,4.3504547E1,2.445122E1,1.9839725E1,1.700411E1,1.12E1,3.1392307E1,7.25E0],"categories":[],"categories_nodes":[],"categories_segments":[],"categories_sizes":[],"default_left":[true,true,true,true,true,true,false,false,false,false,false,false,false],"id":0,"left_children":[1,3,5,7,9,11,-1,-1,-1,-1,-1,-1,-1],"loss_changes":[1.4043844E4,3.8756875E3,9.5503906E2,3.216797E2,8.444863E2,1.7308984E2,0E0,0E0,0E0,0E0,0E0,0E0,0E0],"parents":[2147483647,0,0,1,1,2,2,3,3,4,4,5,5],"right_children":[2,4,6,8,10,12,-1,-1,-1,-1,-1,-1,-1],"split_conditions":[6.8375E0,1.43E1,7.4525E0,9.54E0,5.7819E0,1.70237E1,1.3051365E1,7.3353662E0,5.9519176E0,5.1012335E0,3.3600001E0,9.417692E0,2.1750002E0],"split_indices":[5,12,5,12,0,0,0,0,0,0,0,0,0],"split_type":[0,0,0,0,0,0,0,0,0,0,0,0,0],"sum_hessian":[3.39E2,2.79E2,6E1,1.53E2,1.26E2,3.9E1,2.1E1,8.1E1,7.2E1,7.2E1,5.4E1,3.8E1,1E0],"tree_param":{"num_deleted":"0","num_feature":"13","num_nodes":"13","size_leaf_vector":"0"}},{"base_weights":[1.5591007E1,1.2593962E1,2.353311E1,1.3822454E1,7.9017653E0,2.0873587E1,3.1046425E1,7.8452463E0,1.4068174E1,9.4733925E0,4.9809523E0,2.1762423E1,9.638186E0],"categories":[],"categories_nodes":[],"categories_segments":[],"categories_sizes":[],"default_left":[true,true,true,true,true,true,false,false,false,false,false,false,false],"id":1,"left_children":[1,3,5,7,9,11,-1,-1,-1,-1,-1,-1,-1],"loss_changes":[7.7965938E3,1.3260938E3,1.1902773E3,1.775039E2,2.0069653E2,4.9928516E2,0E0,0E0,0E0,0E0,0E0,0E0,0E0],"parents":[2147483647,0,0,1,1,2,2,3,3,4,4,5,5],"right_children":[2,4,6,8,10,12,-1,-1,-1,-1,-1,-1,-1],"split_conditions":[6.5455E0,1.923E1,7.4525E0,1.6412E2,1.1343E1,8.181126E0,9.313928E0,2.353574E0,4.2204523E0,2.842018E0,1.4942857E0,6.528727E0,2.8914561E0],"split_indices":[5,12,5,11,0,0,0,0,0,0,0,0,0],"split_type":[0,0,0,0,0,0,0,0,0,0,0,0,0],"sum_hessian":[3.39E2,2.48E2,9.1E1,1.95E2,5.3E1,7E1,2.1E1,9E0,1.86E2,3.3E1,2E1,6.4E1,6E0],"tree_param":{"num_deleted":"0","num_feature":"13","num_nodes":"13","size_leaf_vector":"0"}},{"base_weights":[1.1000895E1,1.9451147E1,9.476882E0,1.262656E1,2.0807716E1,1.1111216E1,6.9295945E0,1.051284E1,1.6400513E1,9.011232E0,5.3810697E0],"categories":[],"categories_nodes":[],"categories_segments":[],"categories_sizes":[],"default_left":[true,true,true,false,false,true,true,false,false,false,false],"id":2,"left_children":[1,3,5,-1,-1,7,9,-1,-1,-1,-1],"loss_changes":[4.194285E3,2.0942969E2,1.1303086E3,0E0,0E0,3.8145508E2,3.2543262E2,0E0,0E0,0E0,0E0],"parents":[2147483647,0,0,1,1,2,2,5,5,6,6],"right_children":[2,4,6,-1,-1,8,10,-1,-1,-1,-1],"split_conditions":[5.4399996E0,6.6565E0,1.5004999E1,3.7879682E0,6.2423153E0,7.0745E0,6.0300004E-1,3.1538522E0,4.920154E0,2.7033699E0,1.614321E0],"split_indices":[12,5,12,0,0,5,4,0,0,0,0],"split_type":[0,0,0,0,0,0,0,0,0,0,0],"sum_hessian":[3.39E2,5E1,2.89E2,1E1,4E1,1.74E2,1.15E2,1.59E2,1.5E1,4.7E1,6.8E1],"tree_param":{"num_deleted":"0","num_feature":"13","num_nodes":"11","size_leaf_vector":"0"}},{"base_weights":[7.766573E0,1.1707229E1,6.052291E0,1.0277882E1,1.6437677E1,6.813956E0,3.8163059E0,9.49067E0,1.49180155E1,1.7417345E1,7.674835E0,7.282387E0,4.1722264E0,5.0691724E0,1.4170085E0],"categories":[],"categories_nodes":[],"categories_segments":[],"categories_sizes":[],"default_left":[true,true,true,true,true,true,true,false,false,false,false,false,false,false,false],"id":3,"left_children":[1,3,5,7,9,11,13,-1,-1,-1,-1,-1,-1,-1,-1],"loss_changes":[2.2259785E3,5.2072266E2,3.8103027E2,1.5429297E2,5.51875E1,1.8864844E2,1.8219489E2,0E0,0E0,0E0,0E0,0E0,0E0,0E0,0E0],"parents":[2147483647,0,0,1,1,2,2,3,3,4,4,5,5,6,6],"right_children":[2,4,6,8,10,12,14,-1,-1,-1,-1,-1,-1,-1,-1],"split_conditions":[7.7349997E0,7.4525E0,6.695E-1,8.7100006E1,1.79E1,2.095E1,1.1124849E1,2.847201E0,4.4754047E0,5.2252035E0,2.3024507E0,2.1847162E0,1.251668E0,1.5207518E0,4.2510256E-1],"split_indices":[12,5,4,6,10,10,0,0,0,0,0,0,0,0,0],"split_type":[0,0,0,0,0,0,0,0,0,0,0,0,0,0,0],"sum_hessian":[3.39E2,1.01E2,2.38E2,8E1,2.1E1,1.76E2,6.2E1,7.1E1,9E0,1.8E1,3E0,1.48E2,2.8E1,4E1,2.2E1],"tree_param":{"num_deleted":"0","num_feature":"13","num_nodes":"15","size_leaf_vector":"0"}},{"base_weights":[5.4961085E0,4.6108317E0,1.0202969E1,5.1211996E0,2.3044024E0,1.2446843E1,8.896244E0,1.7353214E1,4.8882284E0,2.6593115E0,-9.780914E-1,3.3743553E0,1.2802976E1,9.943204E0,6.1985326E0],"categories":[],"categories_nodes":[],"categories_segments":[],"categories_sizes":[],"default_left":[true,true,true,true,true,true,true,false,false,false,false,false,false,false,false],"id":4,"left_children":[1,3,5,7,9,11,13,-1,-1,-1,-1,-1,-1,-1,-1],"loss_changes":[1.3696934E3,3.2721094E2,4.467285E1,5.84854E2,6.551041E1,1.1725342E1,4.286914E1,0E0,0E0,0E0,0E0,0E0,0E0,0E0,0E0],"parents":[2147483647,0,0,1,1,2,2,3,3,4,4,5,5,6,6],"right_children":[2,4,6,8,10,12,14,-1,-1,-1,-1,-1,-1,-1,-1],"split_conditions":[6.941E0,1.983E1,1.475E1,1.4110999E0,2.4719952E1,3.5887E2,5.495E0,5.2059646E0,1.4664686E0,7.977935E-1,-2.9342744E-1,1.0123067E0,3.8408928E0,2.9829612E0,1.8595599E0],"split_indices":[5,12,10,7,0,11,12,0,0,0,0,0,0,0,0],"split_type":[0,0,0,0,0,0,0,0,0,0,0,0,0,0,0],"sum_hessian":[3.39E2,2.87E2,5.2E1,2.34E2,5.3E1,1.6E1,3.6E1,3E0,2.31E2,4.8E1,5E0,1E0,1.5E1,2.4E1,1.2E1],"tree_param":{"num_deleted":"0","num_feature":"13","num_nodes":"15","size_leaf_vector":"0"}},{"base_weights":[3.896901E0,2.926176E0,6.4818316E0,1.0416178E1,2.8233573E0,8.384577E0,5.327291E0,1.3699824E1,1.9244418E0,3.6636903E0,1.8427774E0,1.1819167E1,6.6041403E0,7.236394E0,4.1137633E0],"categories":[],"categories_nodes":[],"categories_segments":[],"categories_sizes":[],"default_left":[true,true,true,true,true,true,true,false,false,false,false,false,false,false,false],"id":5,"left_children":[1,3,5,7,9,11,13,-1,-1,-1,-1,-1,-1,-1,-1],"loss_changes":[8.341802E2,1.6234912E2,1.5743848E2,5.728705E1,1.967799E2,1.237417E2,1.09236206E2,0E0,0E0,0E0,0E0,0E0,0E0,0E0,0E0],"parents":[2147483647,0,0,1,1,2,2,3,3,4,4,5,5,6,6],"right_children":[2,4,6,8,10,12,14,-1,-1,-1,-1,-1,-1,-1,-1],"split_conditions":[6.5455E0,1.17165E0,4.66E0,1.386525E1,1.9650002E1,3.20745E0,2.67E2,4.1099477E0,5.7733256E-1,1.0991071E0,5.5283326E-1,3.5457504E0,1.9812422E0,2.1709182E0,1.2341291E0],"split_indices":[5,7,12,0,10,7,9,0,0,0,0,0,0,0,0],"split_type":[0,0,0,0,0,0,0,0,0,0,0,0,0,0,0],"sum_hessian":[3.39E2,2.48E2,9.1E1,2E0,2.46E2,3.2E1,5.9E1,1E0,1E0,1.31E2,1.15E2,9E0,2.3E1,2.1E1,3.8E1],"tree_param":{"num_deleted":"0","num_feature":"13","num_nodes":"15","size_leaf_vector":"0"}},{"base_weights":[2.7727458E0,4.1897397E0,1.7958103E0,1.394083E1,3.8697834E0,3.0706775E0,1.4739171E0,3.019161E0,5.8145323E0,3.942327E0,7.083013E-1,4.9655777E-1,1.8281442E0],"categories":[],"categories_nodes":[],"categories_segments":[],"categories_sizes":[],"default_left":[true,true,true,false,true,true,true,false,false,false,false,false,false],"id":6,"left_children":[1,3,5,-1,7,9,11,-1,-1,-1,-1,-1,-1],"loss_changes":[4.6314185E2,3.7660132E2,7.877942E1,0E0,2.0576843E2,7.957419E1,5.587021E1,0E0,0E0,0E0,0E0,0E0,0E0],"parents":[2147483647,0,0,1,1,2,2,4,4,5,5,6,6],"right_children":[2,4,6,-1,8,10,12,-1,-1,-1,-1,-1,-1],"split_conditions":[9.655001E0,1.48495E0,2.98E2,4.182249E0,7.0745E0,4.57415E0,5.7065E0,9.057483E-1,1.7443597E0,1.1826981E0,2.124904E-1,1.4896734E-1,5.4844326E-1],"split_indices":[12,7,9,0,5,7,5,0,0,0,0,0,0],"split_type":[0,0,0,0,0,0,0,0,0,0,0,0,0],"sum_hessian":[3.39E2,1.37E2,2.02E2,3E0,1.34E2,3.9E1,1.63E2,9.5E1,3.9E1,2.8E1,1.1E1,4.4E1,1.19E2],"tree_param":{"num_deleted":"0","num_feature":"13","num_nodes":"13","size_leaf_vector":"0"}},{"base_weights":[1.9671723E0,4.1010404E0,1.5851225E0,6.335072E0,3.1700537E0,7.410012E0,1.5189426E0,3.9707832E0,7.207368E0,3.6017878E0,-3.9974862E-1,9.553726E0,1.5612917E0,2.2352421E0,9.790403E-1],"categories":[],"categories_nodes":[],"categories_segments":[],"categories_sizes":[],"default_left":[true,true,true,true,true,true,true,false,false,false,false,false,false,false,false],"id":7,"left_children":[1,3,5,7,9,11,13,-1,-1,-1,-1,-1,-1,-1,-1],"loss_changes":[2.7068225E2,8.599005E1,1.00536804E2,2.5408936E-1,6.0005585E1,2.26978E1,1.0919037E2,0E0,0E0,0E0,0E0,0E0,0E0,0E0,0E0],"parents":[2147483647,0,0,1,1,2,2,3,3,4,4,5,5,6,6],"right_children":[2,4,6,8,10,12,14,-1,-1,-1,-1,-1,-1,-1,-1],"split_conditions":[5.4399996E0,3.20745E0,1.17165E0,4.2113E-1,7.1850006E1,1.386525E1,1.8650002E1,1.1912351E0,2.1622105E0,1.0805364E0,-1.1992459E-1,2.866118E0,4.683875E-1,6.7057264E-1,2.937121E-1],"split_indices":[12,7,7,0,6,0,10,0,0,0,0,0,0,0,0],"split_type":[0,0,0,0,0,0,0,0,0,0,0,0,0,0,0],"sum_hessian":[3.39E2,5E1,2.89E2,1.3E1,3.7E1,2E0,2.87E2,5E0,8E0,3.3E1,4E0,1E0,1E0,1.22E2,1.65E2],"tree_param":{"num_deleted":"0","num_feature":"13","num_nodes":"15","size_leaf_vector":"0"}},{"base_weights":[1.4023526E0,5.6688565E-1,1.9633971E0,7.0321465E-1,-2.0848734E0,7.235697E0,1.821061E0,8.3438575E-1,-1.1821665E0,2.4342537E-1,-2.513494E0,9.00651E0,7.622194E-2,4.515008E0,1.5446209E0],"categories":[],"categories_nodes":[],"categories_segments":[],"categories_sizes":[],"default_left":[true,true,true,true,true,true,true,false,false,false,false,false,false,false,false],"id":8,"left_children":[1,3,5,7,9,11,13,-1,-1,-1,-1,-1,-1,-1,-1],"loss_changes":[1.5825659E2,5.1354725E1,1.3916241E2,3.3630974E1,7.5975475E0,6.270398E1,1.412243E2,0E0,0E0,0E0,0E0,0E0,0E0,0E0,0E0],"parents":[2147483647,0,0,1,1,2,2,3,3,4,4,5,5,6,6],"right_children":[2,4,6,8,10,12,14,-1,-1,-1,-1,-1,-1,-1,-1],"split_conditions":[6.049E0,6.0249996E0,1.35735E0,1.944795E1,5.625E0,1.44207E1,2.225E2,2.5031573E-1,-3.5464996E-1,7.302761E-2,-7.540482E-1,2.701953E0,2.2866584E-2,1.3545024E0,4.6338627E-1],"split_indices":[5,5,7,0,2,0,9,0,0,0,0,0,0,0,0],"split_type":[0,0,0,0,0,0,0,0,0,0,0,0,0,0,0],"sum_hessian":[3.39E2,1.37E2,2.02E2,1.31E2,6E0,4E0,1.98E2,1.23E2,8E0,1E0,5E0,3E0,1E0,1.7E1,1.81E2],"tree_param":{"num_deleted":"0","num_feature":"13","num_nodes":"15","size_leaf_vector":"0"}},{"base_weights":[9.926974E-1,8.529507E-1,3.597711E0,4.9827642E0,7.726002E-1,5.3014317E0,1.8749634E0,6.5593457E0,1.2197345E0,1.4251033E0,4.3654853E-1,-1.1565539E0,2.777412E0],"categories":[],"categories_nodes":[],"categories_segments":[],"categories_sizes":[],"default_left":[true,true,true,true,true,false,true,false,false,false,false,false,false],"id":9,"left_children":[1,3,5,7,9,-1,11,-1,-1,-1,-1,-1,-1],"loss_changes":[1.2070563E2,1.03664185E2,3.995636E1,2.7595673E1,6.932651E1,0E0,3.0570107E1,0E0,0E0,0E0,0E0,0E0,0E0],"parents":[2147483647,0,0,1,1,2,2,3,3,4,4,6,6],"right_children":[2,4,6,8,10,-1,12,-1,-1,-1,-1,-1,-1],"split_conditions":[7.8255E0,1.30075E0,2.7E2,6.6349995E-1,2.98E2,1.5904295E0,3.225E0,1.9678038E0,3.6592036E-1,4.27531E-1,1.3096456E-1,-3.4696618E-1,8.3322364E-1],"split_indices":[5,7,9,4,9,0,12,0,0,0,0,0,0],"split_type":[0,0,0,0,0,0,0,0,0,0,0,0,0],"sum_hessian":[3.39E2,3.23E2,1.6E1,5E0,3.18E2,7E0,9E0,3E0,2E0,1.07E2,2.11E2,2E0,7E0],"tree_param":{"num_deleted":"0","num_feature":"13","num_nodes":"13","size_leaf_vector":"0"}},{"base_weights":[7.095028E-1,1.6488345E-1,1.0762416E0,-2.5323372E0,2.6429555E-1,1.2554277E0,-9.5811397E-1,-8.4358853E-1,-3.3769734E0,8.770676E-1,-7.682347E-2,4.9196463E0,1.1277313E0,5.5507773E-1,-1.4664097E0],"categories":[],"categories_nodes":[],"categories_segments":[],"categories_sizes":[],"default_left":[true,true,true,true,true,true,true,false,false,false,false,false,false,false,false],"id":10,"left_children":[1,3,5,7,9,11,13,-1,-1,-1,-1,-1,-1,-1,-1],"loss_changes":[6.7731766E1,3.76721E1,7.520209E1,4.2831154E0,2.8077162E1,8.195065E1,1.3889502E1,0E0,0E0,0E0,0E0,0E0,0E0,0E0,0E0],"parents":[2147483647,0,0,1,1,2,2,3,3,4,4,5,5,6,6],"right_children":[2,4,6,8,10,12,14,-1,-1,-1,-1,-1,-1,-1,-1],"split_conditions":[6.049E0,1.5E0,2.0045E1,4.1445002E-2,7.32E1,1.54175E0,1.5508001E0,-2.5307658E-1,-1.013092E0,2.631203E-1,-2.3047043E-2,1.475894E0,3.3831942E-1,1.6652332E-1,-4.3992293E-1],"split_indices":[5,8,12,0,6,7,7,0,0,0,0,0,0,0,0],"split_type":[0,0,0,0,0,0,0,0,0,0,0,0,0,0,0],"sum_hessian":[3.39E2,1.37E2,2.02E2,4E0,1.33E2,1.86E2,1.6E1,2E0,2E0,4.7E1,8.6E1,5E0,1.81E2,4E0,1.2E1],"tree_param":{"num_deleted":"0","num_feature":"13","num_nodes":"15","size_leaf_vector":"0"}},{"base_weights":[4.981658E-1,4.0092602E-1,2.3221376E0,3.3964477E0,3.433271E-1,3.4965189E0,8.897408E-1,4.351307E0,9.9115276E-1,1.8026276E0,2.291613E-1,1.4729815E0,-1.888092E0],"categories":[],"categories_nodes":[],"categories_segments":[],"categories_sizes":[],"default_left":[true,true,true,true,true,false,true,false,false,false,false,false,false],"id":11,"left_children":[1,3,5,7,9,-1,11,-1,-1,-1,-1,-1,-1],"loss_changes":[5.9372276E1,5.473649E1,2.5486061E1,9.467499E0,5.2732994E1,0E0,1.736243E1,0E0,0E0,0E0,0E0,0E0,0E0],"parents":[2147483647,0,0,1,1,2,2,3,3,4,4,6,6],"right_children":[2,4,6,8,10,-1,12,-1,-1,-1,-1,-1,-1],"split_conditions":[7.8255E0,1.30075E0,1.605E1,6.6349995E-1,2.225E2,1.0489557E0,8.475E1,1.3053921E0,2.9734585E-1,5.407883E-1,6.874839E-2,4.4189444E-1,-5.6642765E-1],"split_indices":[5,7,10,4,9,0,6,0,0,0,0,0,0],"split_type":[0,0,0,0,0,0,0,0,0,0,0,0,0],"sum_hessian":[3.39E2,3.23E2,1.6E1,5E0,3.18E2,8E0,8E0,3E0,2E0,2.2E1,2.96E2,7E0,1E0],"tree_param":{"num_deleted":"0","num_feature":"13","num_nodes":"13","size_leaf_vector":"0"}},{"base_weights":[3.5794163E-1,8.616343E-1,8.6331815E-2,-3.5896644E-1,1.3540978E0,2.47078E0,-2.7933742E-3,-1.0999734E0,1.3577737E0,2.3210168E0,7.265049E-1,4.186596E0,6.039709E-1,1.9478148E0,-6.811138E-2],"categories":[],"categories_nodes":[],"categories_segments":[],"categories_sizes":[],"default_left":[true,true,true,true,true,true,true,false,false,false,false,false,false,false,false],"id":12,"left_children":[1,3,5,7,9,11,13,-1,-1,-1,-1,-1,-1,-1,-1],"loss_changes":[4.64403E1,7.201713E1,4.7185093E1,4.601759E1,4.989444E1,2.309623E1,2.7525787E1,0E0,0E0,0E0,0E0,0E0,0E0,0E0,0E0],"parents":[2147483647,0,0,1,1,2,2,3,3,4,4,5,5,6,6],"right_children":[2,4,6,8,10,12,14,-1,-1,-1,-1,-1,-1,-1,-1],"split_conditions":[1.7849998E1,5.72E-2,1.35735E0,7.0645E0,7.145E1,1.01702E1,4.968E0,-3.2999206E-1,4.0733212E-1,6.9630504E-1,2.1795149E-1,1.2559788E0,1.8119127E-1,5.8434445E-1,-2.0433415E-2],"split_indices":[10,0,7,5,6,0,5,0,0,0,0,0,0,0,0],"split_type":[0,0,0,0,0,0,0,0,0,0,0,0,0,0,0],"sum_hessian":[3.39E2,1.18E2,2.21E2,3.4E1,8.4E1,7E0,2.14E2,2.4E1,1E1,3.2E1,5.2E1,3E0,4E0,6E0,2.08E2],"tree_param":{"num_deleted":"0","num_feature":"13","num_nodes":"15","size_leaf_vector":"0"}},{"base_weights":[2.5936112E-1,3.9824018E-1,-4.8355833E-1,1.0167055E0,3.042784E-2,-2.2268811E-1,-1.4830794E0,4.049042E0,8.596338E-1,-2.0478718E0,1.2580697E-1,-4.266185E-1,9.16175E-1,-1.8424985E0,8.953794E-2],"categories":[],"categories_nodes":[],"categories_segments":[],"categories_sizes":[],"default_left":[true,true,true,true,true,true,true,false,false,false,false,false,false,false,false],"id":13,"left_children":[1,3,5,7,9,11,13,-1,-1,-1,-1,-1,-1,-1,-1],"loss_changes":[3.5272396E1,6.5255585E1,1.374998E1,4.7482803E1,3.613662E1,1.0609803E1,6.382492E0,0E0,0E0,0E0,0E0,0E0,0E0,0E0,0E0],"parents":[2147483647,0,0,1,1,2,2,3,3,4,4,5,5,6,6],"right_children":[2,4,6,8,10,12,14,-1,-1,-1,-1,-1,-1,-1,-1],"split_conditions":[6.1387997E0,7.345E1,4.4050002E-1,1.955E2,6.6149995E-2,1.3791999E-1,6.651E0,1.2147127E0,2.5789016E-1,-6.143616E-1,3.7742093E-2,-1.2798555E-1,2.748525E-1,-5.527496E-1,2.6861383E-2],"split_indices":[7,6,4,9,0,0,5,0,0,0,0,0,0,0,0],"split_type":[0,0,0,0,0,0,0,0,0,0,0,0,0,0,0],"sum_hessian":[3.39E2,2.86E2,5.3E1,1.06E2,1.8E2,4.3E1,1E1,4E0,1.02E2,7E0,1.73E2,3.7E1,6E0,8E0,2E0],"tree_param":{"num_deleted":"0","num_feature":"13","num_nodes":"15","size_leaf_vector":"0"}},{"base_weights":[1.8307307E-1,2.36215E-1,-1.4278275E0,2.705552E-1,-2.0500083E0,-3.7553358E-1,-1.775496E0,4.7582105E-1,-1.4245869E-1,-1.8122832E-1,-3.2354524E0,-7.903385E-1,4.344406E-1,-7.3594445E-1,-1.9993558E0],"categories":[],"categories_nodes":[],"categories_segments":[],"categories_sizes":[],"default_left":[true,true,true,true,true,true,true,false,false,false,false,false,false,false,false],"id":14,"left_children":[1,3,5,7,9,11,13,-1,-1,-1,-1,-1,-1,-1,-1],"loss_changes":[2.9443432E1,2.6462725E1,3.357586E0,2.77053E1,1.04903145E1,1.6872804E0,3.9029503E-1,0E0,0E0,0E0,0E0,0E0,0E0,0E0,0E0],"parents":[2147483647,0,0,1,1,2,2,3,3,4,4,5,5,6,6],"right_children":[2,4,6,8,10,12,14,-1,-1,-1,-1,-1,-1,-1,-1],"split_conditions":[1.921005E1,2.6695E1,4.826E0,4.3606997E0,9.535E1,4.5855E0,8.745E1,1.4274631E-1,-4.273761E-2,-5.43685E-2,-9.706358E-1,-2.3710157E-1,1.3033219E-1,-2.2078334E-1,-5.998068E-1],"split_indices":[0,2,5,7,6,5,6,0,0,0,0,0,0,0,0],"split_type":[0,0,0,0,0,0,0,0,0,0,0,0,0,0,0],"sum_hessian":[3.39E2,3.29E2,1E1,3.25E2,4E0,3E0,7E0,2.17E2,1.08E2,2E0,2E0,2E0,1E0,2E0,5E0],"tree_param":{"num_deleted":"0","num_feature":"13","num_nodes":"15","size_leaf_vector":"0"}},{"base_weights":[1.22703254E-1,-1.025562E0,1.9767472E-1,2.123071E0,-1.4687377E0,-1.1453168E-1,4.808289E-1,2.165041E-1,-1.5743903E0,1.5096779E-1,-7.165298E-1,1.9353057E0,3.665961E-1],"categories":[],"categories_nodes":[],"categories_segments":[],"categories_sizes":[],"default_left":[true,true,true,false,true,true,true,false,false,false,false,false,false],"id":15,"left_children":[1,3,5,-1,7,9,11,-1,-1,-1,-1,-1,-1],"loss_changes":[2.9472353E1,3.2421585E1,2.8343885E1,0E0,3.723812E0,2.456219E1,2.7203552E1,0E0,0E0,0E0,0E0,0E0,0E0],"parents":[2147483647,0,0,1,1,2,2,4,4,5,5,6,6],"right_children":[2,4,6,-1,8,10,12,-1,-1,-1,-1,-1,-1],"split_conditions":[1.39995E2,1.60605E0,6.142E0,6.369213E-1,1.33772E0,9.455E1,6.173E0,6.495123E-2,-4.723171E-1,4.529034E-2,-2.1495895E-1,5.8059174E-1,1.0997883E-1],"split_indices":[11,7,5,0,0,6,5,0,0,0,0,0,0],"split_type":[0,0,0,0,0,0,0,0,0,0,0,0,0],"sum_hessian":[3.39E2,2E1,3.19E2,2E0,1.8E1,1.52E2,1.67E2,1E0,1.7E1,1.06E2,4.6E1,1.1E1,1.56E2],"tree_param":{"num_deleted":"0","num_feature":"13","num_nodes":"13","size_leaf_vector":"0"}},{"base_weights":[8.809955E-2,2.953595E0,6.2405508E-2,3.6219215E0,8.084707E-1,4.0709034E-1,-1.24321304E-1,5.7818055E-1,-1.7482545E0,-1.937143E-1,1.211756E0],"categories":[],"categories_nodes":[],"categories_segments":[],"categories_sizes":[],"default_left":[true,true,true,false,false,true,true,false,false,false,false],"id":16,"left_children":[1,3,5,-1,-1,7,9,-1,-1,-1,-1],"loss_changes":[2.484857E1,1.3727131E0,2.1804932E1,0E0,0E0,4.4893063E1,2.0631905E1,0E0,0E0,0E0,0E0],"parents":[2147483647,0,0,1,1,2,2,5,5,6,6],"right_children":[2,4,6,-1,-1,8,10,-1,-1,-1,-1],"split_conditions":[1.17165E0,1.386525E1,1.7849998E1,1.0865765E0,2.4254122E-1,4.125E2,5E-1,1.7345417E-1,-5.244764E-1,-5.8114294E-2,3.6352682E-1],"split_indices":[7,0,10,0,0,9,3,0,0,0,0],"split_type":[0,0,0,0,0,0,0,0,0,0,0],"sum_hessian":[3.39E2,2E0,3.37E2,1E0,1E0,1.18E2,2.19E2,1.1E2,8E0,2.09E2,1E1],"tree_param":{"num_deleted":"0","num_feature":"13","num_nodes":"11","size_leaf_vector":"0"}},{"base_weights":[6.544491E-2,-3.8917914E-1,1.8688537E-1,-2.227865E-1,-3.1621575E0,6.553226E-1,-7.6844655E-2,3.0500254E-1,-7.750694E-1,2.1709385E0,2.583016E-1,3.180947E0,-1.3354951E-1],"categories":[],"categories_nodes":[],"categories_segments":[],"categories_sizes":[],"default_left":[true,true,true,true,false,true,true,false,false,false,false,false,false],"id":17,"left_children":[1,3,5,7,-1,9,11,-1,-1,-1,-1,-1,-1],"loss_changes":[1.884405E1,3.251654E1,3.3282875E1,2.0349129E1,0E0,5.7807182E1,3.2383553E1,0E0,0E0,0E0,0E0,0E0,0E0],"parents":[2147483647,0,0,1,1,2,2,3,3,5,5,6,6],"right_children":[2,4,6,8,-1,10,12,-1,-1,-1,-1,-1,-1],"split_conditions":[6.6149995E-2,7.9850006E1,1.108E1,2.715E2,-9.486473E-1,2.6191E0,3.105E1,9.150077E-2,-2.3252083E-1,6.512816E-1,7.749048E-2,9.5428413E-1,-4.0064856E-2],"split_indices":[0,6,12,9,0,7,6,0,0,0,0,0,0],"split_type":[0,0,0,0,0,0,0,0,0,0,0,0,0],"sum_hessian":[3.39E2,7.1E1,2.68E2,6.8E1,3E0,9.6E1,1.72E2,3.5E1,3.3E1,1.9E1,7.7E1,2E0,1.7E2],"tree_param":{"num_deleted":"0","num_feature":"13","num_nodes":"13","size_leaf_vector":"0"}},{"base_weights":[4.743912E-2,2.3068154E0,2.724513E-2,2.7529907E0,7.072325E-1,5.09896E-1,-6.835802E-2,9.217658E-1,-1.258823E0,-1.3244726E-2,-1.1263746E0],"categories":[],"categories_nodes":[],"categories_segments":[],"categories_sizes":[],"default_left":[true,true,true,false,false,true,true,false,false,false,false],"id":18,"left_children":[1,3,5,-1,-1,7,9,-1,-1,-1,-1],"loss_changes":[1.5449928E1,1.940794E-1,1.5631169E1,0E0,0E0,4.1955334E1,1.648703E1,0E0,0E0,0E0,0E0],"parents":[2147483647,0,0,1,1,2,2,5,5,6,6],"right_children":[2,4,6,-1,-1,8,10,-1,-1,-1,-1],"split_conditions":[1.17165E0,1.386525E1,3.325E1,8.258973E-1,2.1216975E-1,7.7405996E0,2.8685E1,2.7652976E-1,-3.7764692E-1,-3.973418E-3,-3.3791238E-1],"split_indices":[7,0,6,0,0,7,12,0,0,0,0],"split_type":[0,0,0,0,0,0,0,0,0,0,0],"sum_hessian":[3.39E2,2E0,3.37E2,1E0,1E0,5.5E1,2.82E2,4.5E1,1E1,2.69E2,1.3E1],"tree_param":{"num_deleted":"0","num_feature":"13","num_nodes":"11","size_leaf_vector":"0"}},{"base_weights":[3.4957465E-2,1.7309086E-1,-2.5937194E-1,2.2243989E0,8.98995E-2,5.1896936E-1,-5.094423E-1,7.318166E-1,2.546306E0,-1.5080872E0,1.4839718E-1,7.547425E-1,-1.6187967E0,1.7914271E-1,-7.7638566E-1],"categories":[],"categories_nodes":[],"categories_segments":[],"categories_sizes":[],"default_left":[true,true,true,true,true,true,true,false,false,false,false,false,false,false,false],"id":19,"left_children":[1,3,5,7,9,11,13,-1,-1,-1,-1,-1,-1,-1,-1],"loss_changes":[1.386818E1,3.939108E1,2.148016E1,2.460823E0,2.1162977E1,1.4830526E1,1.53955765E1,0E0,0E0,0E0,0E0,0E0,0E0,0E0,0E0],"parents":[2147483647,0,0,1,1,2,2,3,3,4,4,5,5,6,6],"right_children":[2,4,6,8,10,12,14,-1,-1,-1,-1,-1,-1,-1,-1],"split_conditions":[4.3606997E0,3.3E1,1.575E1,6.811E-2,5.1785E-2,7.5684E0,2.78E1,2.1954499E-1,7.638918E-1,-4.5242617E-1,4.4519156E-2,2.2642276E-1,-4.8563904E-1,5.3742815E-2,-2.3291571E-1],"split_indices":[7,6,10,0,0,7,6,0,0,0,0,0,0,0,0],"split_type":[0,0,0,0,0,0,0,0,0,0,0,0,0,0,0],"sum_hessian":[3.39E2,2.31E2,1.08E2,8E0,2.23E2,2.6E1,8.2E1,2E0,6E0,7E0,2.16E2,2.4E1,2E0,2.3E1,5.9E1],"tree_param":{"num_deleted":"0","num_feature":"13","num_nodes":"15","size_leaf_vector":"0"}},{"base_weights":[2.4873594E-2,1.4435301E0,-6.094278E-4,2.2445323E0,4.8189592E-1,8.7890215E-2,-4.0769765E-1,-4.5074463E-2,6.7257756E-1,8.2981745E-3,1.5768057E0,9.50332E-1,-5.2167E-1],"categories":[],"categories_nodes":[],"categories_segments":[],"categories_sizes":[],"default_left":[true,true,true,false,true,true,true,false,false,false,false,false,false],"id":20,"left_children":[1,3,5,-1,7,9,11,-1,-1,-1,-1,-1,-1],"loss_changes":[1.2292442E1,3.5399942E0,1.2104932E1,0E0,4.3225032E-1,3.2694523E1,9.782427E0,0E0,0E0,0E0,0E0,0E0,0E0],"parents":[2147483647,0,0,1,1,2,2,4,4,5,5,6,6],"right_children":[2,4,6,-1,8,10,12,-1,-1,-1,-1,-1,-1],"split_conditions":[1.30075E0,3.7909998E2,5.699965E0,6.7335975E-1,8.82343E0,3.69503E0,4.826E0,-1.3522339E-2,2.0177327E-1,2.4894525E-3,4.7304174E-1,2.850996E-1,-1.56501E-1],"split_indices":[7,11,0,0,0,0,5,0,0,0,0,0,0],"split_type":[0,0,0,0,0,0,0,0,0,0,0,0,0],"sum_hessian":[3.39E2,5E0,3.34E2,2E0,3E0,2.75E2,5.9E1,1E0,2E0,2.62E2,1.3E1,4E0,5.5E1],"tree_param":{"num_deleted":"0","num_feature":"13","num_nodes":"13","size_leaf_vector":"0"}},{"base_weights":[2.1722551E-2,5.501157E-2,-9.789228E-1,1.4058541E0,8.404446E-3,-2.048781E0,-7.489232E-2,3.6102116E0,-3.695232E-1,-2.781847E-1,1.3247027E-1,-4.447506E-1,5.665023E-1],"categories":[],"categories_nodes":[],"categories_segments":[],"categories_sizes":[],"default_left":[true,true,true,true,true,false,true,false,false,false,false,false,false],"id":21,"left_children":[1,3,5,7,9,-1,11,-1,-1,-1,-1,-1,-1],"loss_changes":[1.1379421E1,2.0764618E1,1.048559E1,4.4383286E1,1.1414745E1,0E0,1.9125278E0,0E0,0E0,0E0,0E0,0E0,0E0],"parents":[2147483647,0,0,1,1,2,2,3,3,4,4,6,6],"right_children":[2,4,6,8,10,-1,12,-1,-1,-1,-1,-1,-1],"split_conditions":[2.377E1,2.07E2,1.90625E0,6.6455E0,1.07025E-1,-6.146343E-1,3.822E2,1.0830635E0,-1.10856965E-1,-8.345541E-2,3.974108E-2,-1.3342519E-1,1.699507E-1],"split_indices":[2,9,7,5,0,0,11,0,0,0,0,0,0],"split_type":[0,0,0,0,0,0,0,0,0,0,0,0,0],"sum_hessian":[3.39E2,3.29E2,1E1,1E1,3.19E2,4E0,6E0,4E0,6E0,9.6E1,2.23E2,4E0,2E0],"tree_param":{"num_deleted":"0","num_feature":"13","num_nodes":"13","size_leaf_vector":"0"}},{"base_weights":[1.6236087E-2,2.092553E-1,-1.4093505E-1,7.130148E-1,-8.8925585E-2,2.1587966E-3,-7.665213E-1,-2.2096472E0,8.046631E-1,1.9604001E-2,-1.4871066E0,5.1509285E-1,-1.2096265E-1,-1.1175038E0,7.9705185E-1],"categories":[],"categories_nodes":[],"categories_segments":[],"categories_sizes":[],"default_left":[true,true,true,true,true,true,true,false,false,false,false,false,false,false,false],"id":22,"left_children":[1,3,5,7,9,11,13,-1,-1,-1,-1,-1,-1,-1,-1],"loss_changes":[1.0344089E1,2.3045757E1,1.6830952E1,1.7045883E1,1.47483225E1,9.787896E0,2.0098242E1,0E0,0E0,0E0,0E0,0E0,0E0,0E0,0E0],"parents":[2147483647,0,0,1,1,2,2,3,3,4,4,5,5,6,6],"right_children":[2,4,6,8,10,12,14,-1,-1,-1,-1,-1,-1,-1,-1],"split_conditions":[7.3100006E1,4.25325E0,3.38695E0,5.1815E0,4.065E2,9.559999E0,9.57E1,-6.628942E-1,2.4139895E-1,5.8812005E-3,-4.4613197E-1,1.5452786E-1,-3.6288798E-2,-3.3525115E-1,2.3911557E-1],"split_indices":[6,7,7,5,9,12,6,0,0,0,0,0,0,0,0],"split_type":[0,0,0,0,0,0,0,0,0,0,0,0,0,0,0],"sum_hessian":[3.39E2,1.52E2,1.87E2,5.6E1,9.6E1,1.53E2,3.4E1,1E0,5.5E1,9E1,6E0,2.9E1,1.24E2,2.8E1,6E0],"tree_param":{"num_deleted":"0","num_feature":"13","num_nodes":"15","size_leaf_vector":"0"}},{"base_weights":[8.895793E-3,-6.2454873E-1,4.8335027E-2,1.8030246E0,-9.944471E-1,1.6349461E0,2.315714E-2,5.0296545E-1,-1.1121165E0,2.3385155E0,3.863945E-1,8.944944E-2,-4.013438E-1],"categories":[],"categories_nodes":[],"categories_segments":[],"categories_sizes":[],"default_left":[true,true,true,false,true,true,true,false,false,false,false,false,false],"id":23,"left_children":[1,3,5,-1,7,9,11,-1,-1,-1,-1,-1,-1],"loss_changes":[8.5242605E0,1.9752123E1,1.2785291E1,0E0,3.7309475E0,3.4886255E0,8.956642E0,0E0,0E0,0E0,0E0,0E0,0E0],"parents":[2147483647,0,0,1,1,2,2,4,4,5,5,6,6],"right_children":[2,4,6,-1,8,10,12,-1,-1,-1,-1,-1,-1],"split_conditions":[1.0041E2,1.60605E0,2.4441501E2,5.4090744E-1,3.085E0,6.5900004E-1,9.775E1,1.5088964E-1,-3.3363494E-1,7.0155466E-1,1.1591835E-1,2.6834834E-2,-1.2040314E-1],"split_indices":[11,7,11,0,11,4,6,0,0,0,0,0,0],"split_type":[0,0,0,0,0,0,0,0,0,0,0,0,0],"sum_hessian":[3.39E2,1.9E1,3.2E2,2E0,1.7E1,4E0,3.16E2,1E0,1.6E1,2E0,2E0,2.74E2,4.2E1],"tree_param":{"num_deleted":"0","num_feature":"13","num_nodes":"13","size_leaf_vector":"0"}},{"base_weights":[9.409659E-3,1.4341068E0,-7.5286147E-3,1.94417E0,6.160291E-1,-3.4420595E-2,8.7528116E-1,-1.7231302E-2,-1.8908501E0,-1.0487213E0,1.2055838E0],"categories":[],"categories_nodes":[],"categories_segments":[],"categories_sizes":[],"default_left":[true,true,true,false,false,true,true,false,false,false,false],"id":24,"left_children":[1,3,5,-1,-1,7,9,-1,-1,-1,-1],"loss_changes":[8.215646E0,4.714203E-1,8.030677E0,0E0,0E0,1.043413E1,7.6193523E0,0E0,0E0,0E0,0E0],"parents":[2147483647,0,0,1,1,2,2,5,5,6,6],"right_children":[2,4,6,-1,-1,8,10,-1,-1,-1,-1],"split_conditions":[1.1883E0,1.01702E1,8.158E0,5.83251E-1,1.8480873E-1,7.9845E0,3.2340002E-1,-5.1693907E-3,-5.67255E-1,-3.146164E-1,3.6167514E-1],"split_indices":[7,0,5,0,0,5,0,0,0,0,0],"split_type":[0,0,0,0,0,0,0,0,0,0,0],"sum_hessian":[3.39E2,3E0,3.36E2,1E0,2E0,3.27E2,9E0,3.25E2,2E0,1E0,8E0],"tree_param":{"num_deleted":"0","num_feature":"13","num_nodes":"11","size_leaf_vector":"0"}},{"base_weights":[7.3001063E-3,9.845662E-1,-1.619968E-2,-4.3413162E-2,1.1376222E0,-9.457318E-1,1.8491577E-2,3.4012794E-1,1.21385E0,4.021179E-1,-1.6699214E0,-8.10872E-1,5.8822624E-2],"categories":[],"categories_nodes":[],"categories_segments":[],"categories_sizes":[],"default_left":[true,true,true,false,true,true,true,false,false,false,false,false,false],"id":25,"left_children":[1,3,5,-1,7,9,11,-1,-1,-1,-1,-1,-1],"loss_changes":[7.8242345E0,1.3080959E0,1.0755619E1,0E0,1.2674332E-2,1.238469E1,1.0818308E1,0E0,0E0,0E0,0E0,0E0,0E0],"parents":[2147483647,0,0,1,1,2,2,4,4,5,5,6,6],"right_children":[2,4,6,-1,8,10,12,-1,-1,-1,-1,-1,-1],"split_conditions":[1.495E0,3.9154498E2,3.5349998E0,-1.3023949E-2,2.875E1,1.63E1,1.5E0,1.0203839E-1,3.6415502E-1,1.20635375E-1,-5.0097644E-1,-2.4326162E-1,1.7646788E-2],"split_indices":[2,11,12,0,1,10,8,0,0,0,0,0,0],"split_type":[0,0,0,0,0,0,0,0,0,0,0,0,0],"sum_hessian":[3.39E2,7E0,3.32E2,1E0,6E0,1.1E1,3.21E2,1E0,5E0,4E0,7E0,1.4E1,3.07E2],"tree_param":{"num_deleted":"0","num_feature":"13","num_nodes":"13","size_leaf_vector":"0"}},{"base_weights":[4.6606893E-3,1.078029E0,-1.4577731E-2,1.6055285E0,4.128971E-1,1.4646256E-1,-1.8138568E-1,1.04206085E-1,4.8105875E-1,4.243838E-3,1.1621084E0,-9.114301E-1,2.2175748E-2],"categories":[],"categories_nodes":[],"categories_segments":[],"categories_sizes":[],"default_left":[true,true,true,false,true,true,true,false,false,false,false,false,false],"id":26,"left_children":[1,3,5,-1,7,9,11,-1,-1,-1,-1,-1,-1],"loss_changes":[7.0366845E0,1.4422221E0,9.025604E0,0E0,3.403431E-2,2.469497E1,2.4540676E1,0E0,0E0,0E0,0E0,0E0,0E0],"parents":[2147483647,0,0,1,1,2,2,4,4,5,5,6,6],"right_children":[2,4,6,-1,8,10,12,-1,-1,-1,-1,-1,-1],"split_conditions":[1.30075E0,3.7909998E2,5.28E-1,4.8165855E-1,8.82343E0,1.4549999E1,5.74E-1,3.1261828E-2,1.4431763E-1,1.2731515E-3,3.4863254E-1,-2.7342904E-1,6.6527245E-3],"split_indices":[7,11,4,0,0,12,4,0,0,0,0,0,0],"split_type":[0,0,0,0,0,0,0,0,0,0,0,0,0],"sum_hessian":[3.39E2,5E0,3.34E2,2E0,3E0,1.7E2,1.64E2,1E0,2E0,1.5E2,2E1,3.5E1,1.29E2],"tree_param":{"num_deleted":"0","num_feature":"13","num_nodes":"13","size_leaf_vector":"0"}},{"base_weights":[5.44027E-3,-2.1806527E-2,6.9247943E-1,3.200491E-1,-8.2992814E-2,9.061108E-1,-3.2166228E-1,1.4595487E0,6.825038E-2,-5.736591E-1,-2.3780886E-2,1.2541723E0,2.3760262E-1,7.1082115E-2,-5.535755E-1],"categories":[],"categories_nodes":[],"categories_segments":[],"categories_sizes":[],"default_left":[true,true,true,true,true,true,true,false,false,false,false,false,false,false,false],"id":27,"left_children":[1,3,5,7,9,11,13,-1,-1,-1,-1,-1,-1,-1,-1],"loss_changes":[6.3797703E0,6.887297E0,3.1079445E0,1.4246613E1,8.092228E0,2.261507E0,3.1259716E-1,0E0,0E0,0E0,0E0,0E0,0E0,0E0,0E0],"parents":[2147483647,0,0,1,1,2,2,3,3,4,4,5,5,6,6],"right_children":[2,4,6,8,10,12,14,-1,-1,-1,-1,-1,-1,-1,-1],"split_conditions":[2.105E1,3.215E1,6.4425E0,4.98975E0,5.0075002E-2,1.7075E1,3.4619498E-1,4.3786463E-1,2.0475116E-2,-1.7209774E-1,-7.134266E-3,3.7625173E-1,7.128079E-2,2.1324635E-2,-1.6607267E-1],"split_indices":[10,6,5,7,0,12,0,0,0,0,0,0,0,0,0],"split_type":[0,0,0,0,0,0,0,0,0,0,0,0,0,0,0],"sum_hessian":[3.39E2,3.27E2,1.2E1,4.9E1,2.78E2,1E1,2E0,8E0,4.1E1,2.9E1,2.49E2,6E0,4E0,1E0,1E0],"tree_param":{"num_deleted":"0","num_feature":"13","num_nodes":"15","size_leaf_vector":"0"}},{"base_weights":[5.5192932E-3,2.946461E-2,-7.1334195E-1,6.8831E-1,-1.0751824E-2,-1.5002117E0,-4.9386162E-2,3.0654037E0,-1.4994189E-1,2.0170678E-1,-1.1642141E-1,-3.253398E-1,-1.7125947E0,-3.400448E-1,4.5150694E-1],"categories":[],"categories_nodes":[],"categories_segments":[],"categories_sizes":[],"default_left":[true,true,true,true,true,true,true,false,false,false,false,false,false,false,false],"id":28,"left_children":[1,3,5,7,9,11,13,-1,-1,-1,-1,-1,-1,-1,-1],"loss_changes":[5.873561E0,8.751217E0,5.672824E0,3.8319096E1,7.0280113E0,6.904392E-1,1.1726549E0,0E0,0E0,0E0,0E0,0E0,0E0,0E0,0E0],"parents":[2147483647,0,0,1,1,2,2,3,3,4,4,5,5,6,6],"right_children":[2,4,6,8,10,12,14,-1,-1,-1,-1,-1,-1,-1,-1],"split_conditions":[2.377E1,2.225E2,1.90625E0,6.4965E0,3.83755E2,9.4149994E1,3.822E2,9.1962117E-1,-4.4982567E-2,6.0512036E-2,-3.4926426E-2,-9.760194E-2,-5.1377845E-1,-1.0201345E-1,1.3545209E-1],"split_indices":[2,9,7,5,11,6,11,0,0,0,0,0,0,0,0],"split_type":[0,0,0,0,0,0,0,0,0,0,0,0,0,0,0],"sum_hessian":[3.39E2,3.29E2,1E1,1.8E1,3.11E2,4E0,6E0,4E0,1.4E1,1.03E2,2.08E2,1E0,3E0,4E0,2E0],"tree_param":{"num_deleted":"0","num_feature":"13","num_nodes":"15","size_leaf_vector":"0"}},{"base_weights":[4.8118383E-3,-3.1035325E-1,6.672213E-2,1.0023388E0,-5.500173E-1,4.6477994E-1,-3.0486396E-2,1.5526102E0,-7.365298E-2,-1.6381754E0,-3.5556197E-1,1.03630126E-1,1.9327902E0,-5.948848E-1,3.509838E-2],"categories":[],"categories_nodes":[],"categories_segments":[],"categories_sizes":[],"default_left":[true,true,true,true,true,true,true,false,false,false,false,false,false,false,false],"id":29,"left_children":[1,3,5,7,9,11,13,-1,-1,-1,-1,-1,-1,-1,-1],"loss_changes":[6.6547747E0,1.816919E1,1.1042135E1,5.443141E0,9.574238E0,2.9489317E1,8.534547E0,0E0,0E0,0E0,0E0,0E0,0E0,0E0,0E0],"parents":[2147483647,0,0,1,1,2,2,3,3,4,4,5,5,6,6],"right_children":[2,4,6,8,10,12,14,-1,-1,-1,-1,-1,-1,-1,-1],"split_conditions":[3.541E2,1.6087999E0,3.83755E2,6.965E-1,5.288E0,6.275E-1,1.7269E0,4.6578306E-1,-2.2095896E-2,-4.9145263E-1,-1.066686E-1,3.108904E-2,5.798371E-1,-1.7846546E-1,1.0529514E-2],"split_indices":[11,7,11,4,5,4,7,0,0,0,0,0,0,0,0],"split_type":[0,0,0,0,0,0,0,0,0,0,0,0,0,0,0],"sum_hessian":[3.39E2,5.5E1,2.84E2,8E0,4.7E1,5.5E1,2.29E2,5E0,3E0,6E0,4.1E1,4.5E1,1E1,2.3E1,2.06E2],"tree_param":{"num_deleted":"0","num_feature":"13","num_nodes":"15","size_leaf_vector":"0"}},{"base_weights":[4.217421E-3,8.022702E-1,-1.4967682E-2,6.0710907E-2,8.995342E-1,4.263478E-2,-3.343114E-1,1.1353087E-2,1.4849142E0,6.96091E-1,-4.6144408E-1],"categories":[],"categories_nodes":[],"categories_segments":[],"categories_sizes":[],"default_left":[true,true,true,false,false,true,true,false,false,false,false],"id":30,"left_children":[1,3,5,-1,-1,7,9,-1,-1,-1,-1],"loss_changes":[5.2176547E0,5.224047E-1,6.139783E0,0E0,0E0,1.2751237E1,7.002095E0,0E0,0E0,0E0,0E0],"parents":[2147483647,0,0,1,1,2,2,5,5,6,6],"right_children":[2,4,6,-1,-1,8,10,-1,-1,-1,-1],"split_conditions":[1.495E0,3.9154498E2,6.07215E0,1.8213272E-2,2.6986027E-1,5.9120502E0,1.47E-2,3.405926E-3,4.4547427E-1,2.088273E-1,-1.3843323E-1],"split_indices":[2,11,7,0,0,7,0,0,0,0,0],"split_type":[0,0,0,0,0,0,0,0,0,0,0],"sum_hessian":[3.39E2,7E0,3.32E2,1E0,6E0,2.82E2,5E1,2.77E2,5E0,5E0,4.5E1],"tree_param":{"num_deleted":"0","num_feature":"13","num_nodes":"11","size_leaf_vector":"0"}},{"base_weights":[5.326459E-3,-8.338992E-1,2.2899074E-2,4.4289827E-1,-1.1205152E0,8.315008E-1,5.572515E-3,-1.3001515E0,-1.11166954E-1,1.3436866E0,1.11439824E-1,-1.0457165E0,3.5122607E-2],"categories":[],"categories_nodes":[],"categories_segments":[],"categories_sizes":[],"default_left":[true,true,true,false,true,true,true,false,false,false,false,false,false],"id":31,"left_children":[1,3,5,-1,7,9,11,-1,-1,-1,-1,-1,-1],"loss_changes":[5.033208E0,3.057928E0,4.6748013E0,0E0,9.4335985E-1,2.4318948E0,1.02262745E1,0E0,0E0,0E0,0E0,0E0,0E0],"parents":[2147483647,0,0,1,1,2,2,4,4,5,5,6,6],"right_children":[2,4,6,-1,8,10,12,-1,-1,-1,-1,-1,-1],"split_conditions":[2.802E1,3.085E0,4.7775E0,1.3286948E-1,7.2650003E-1,1.944795E1,5.1394997E0,-3.9004546E-1,-3.3350088E-2,4.03106E-1,3.3431947E-2,-3.1371498E-1,1.0536782E-2],"split_indices":[11,11,5,0,4,0,5,0,0,0,0,0,0],"split_type":[0,0,0,0,0,0,0,0,0,0,0,0,0],"sum_hessian":[3.39E2,6E0,3.33E2,1E0,5E0,6E0,3.27E2,4E0,1E0,3E0,3E0,8E0,3.19E2],"tree_param":{"num_deleted":"0","num_feature":"13","num_nodes":"13","size_leaf_vector":"0"}},{"base_weights":[3.2666612E-3,-1.6095854E-2,6.4383924E-1,-3.9685243E-3,-1.3406944E0,-8.920784E-1,9.136166E-1,6.288529E-1,-2.3731792E-2,-3.6496988E-1,1.3310655E0],"categories":[],"categories_nodes":[],"categories_segments":[],"categories_sizes":[],"default_left":[true,true,true,true,false,false,true,false,false,false,false],"id":32,"left_children":[1,3,5,7,-1,-1,9,-1,-1,-1,-1],"loss_changes":[4.227416E0,5.3118114E0,4.9585757E0,4.1296015E0,0E0,0E0,5.2895E0,0E0,0E0,0E0,0E0],"parents":[2147483647,0,0,1,1,2,2,3,3,6,6],"right_children":[2,4,6,8,-1,-1,10,-1,-1,-1,-1],"split_conditions":[8.158E0,7.9845E0,3.2340002E-1,4.968E0,-4.0220836E-1,-2.6762354E-1,3.4299998E0,1.8865588E-1,-7.119538E-3,-1.0949097E-1,3.9931968E-1],"split_indices":[5,5,0,5,0,0,12,0,0,0,0],"split_type":[0,0,0,0,0,0,0,0,0,0,0],"sum_hessian":[3.39E2,3.3E2,9E0,3.28E2,2E0,1E0,8E0,9E0,3.19E2,2E0,6E0],"tree_param":{"num_deleted":"0","num_feature":"13","num_nodes":"11","size_leaf_vector":"0"}},{"base_weights":[1.7031262E-3,1.3480647E-2,-9.909787E-1,-2.9042784E-2,3.3914796E-1,-1.2867908E0,-4.6344438E-1,-1.0734105E0,3.3570533E-3,1.4610377E-2,7.1696347E-1],"categories":[],"categories_nodes":[],"categories_segments":[],"categories_sizes":[],"default_left":[true,true,true,true,true,false,false,false,false,false,false],"id":33,"left_children":[1,3,5,7,9,-1,-1,-1,-1,-1,-1],"loss_changes":[3.9884114E0,4.6767917E0,2.7848482E-2,1.0120971E1,4.7715225E0,0E0,0E0,0E0,0E0,0E0,0E0],"parents":[2147483647,0,0,1,1,2,2,3,3,4,4],"right_children":[2,4,6,8,10,-1,-1,-1,-1,-1,-1],"split_conditions":[9.9666E0,3.75E1,6.2314997E0,1.5E0,4.13E-1,-3.8603726E-1,-1.3903332E-1,-3.2202315E-1,1.007116E-3,4.3831132E-3,2.1508905E-1],"split_indices":[7,1,5,8,4,0,0,0,0,0,0],"split_type":[0,0,0,0,0,0,0,0,0,0,0],"sum_hessian":[3.39E2,3.36E2,3E0,2.98E2,3.8E1,1E0,2E0,8E0,2.9E2,2.1E1,1.7E1],"tree_param":{"num_deleted":"0","num_feature":"13","num_nodes":"11","size_leaf_vector":"0"}},{"base_weights":[-6.507551E-4,1.4859428E-2,-7.4061507E-1,-5.94743E-3,5.2908623E-1,-1.0631604E0,-2.32916E-1,-7.974512E-2,1.6108924E-1,-1.8796396E-1,7.6299775E-1,1.8904972E-1,-4.365878E-1],"categories":[],"categories_nodes":[],"categories_segments":[],"categories_sizes":[],"default_left":[true,true,true,true,true,false,true,false,false,false,false,false,false],"id":34,"left_children":[1,3,5,7,9,-1,11,-1,-1,-1,-1,-1,-1],"loss_changes":[3.9131792E0,3.5767612E0,8.986647E-1,3.9821146E0,2.3238573E0,0E0,4.2630693E-1,0E0,0E0,0E0,0E0,0E0,0E0],"parents":[2147483647,0,0,1,1,2,2,3,3,4,4,6,6],"right_children":[2,4,6,8,10,-1,12,-1,-1,-1,-1,-1,-1],"split_conditions":[2.4719952E1,2.105E1,1.5981E0,6.5E0,1.4695E1,-3.1894815E-1,1.6328E0,-2.3923537E-2,4.8326775E-2,-5.638919E-2,2.2889933E-1,5.671492E-2,-1.3097635E-1],"split_indices":[0,10,7,8,12,0,7,0,0,0,0,0,0],"split_type":[0,0,0,0,0,0,0,0,0,0,0,0,0],"sum_hessian":[3.39E2,3.33E2,6E0,3.21E2,1.2E1,3E0,3E0,2.23E2,9.8E1,3E0,9E0,1E0,2E0],"tree_param":{"num_deleted":"0","num_feature":"13","num_nodes":"13","size_leaf_vector":"0"}},{"base_weights":[-1.0328377E-3,1.7025979E-1,-6.2448386E-2,-1.0160186E-2,1.1504081E0,-3.1139973E-1,3.555157E-2,6.778425E-1,-2.802655E-1,1.2733814E0,-2.241211E-1,-1.3328801E0,-1.220934E-1,-1.0375309E0,7.827172E-2],"categories":[],"categories_nodes":[],"categories_segments":[],"categories_sizes":[],"default_left":[true,true,true,true,true,true,true,false,false,false,false,false,false,false,false],"id":35,"left_children":[1,3,5,7,9,11,13,-1,-1,-1,-1,-1,-1,-1,-1],"loss_changes":[3.5874429E0,1.5927139E1,6.1347733E0,1.4499131E1,2.6518135E0,1.3566725E1,8.378655E0,0E0,0E0,0E0,0E0,0E0,0E0,0E0,0E0],"parents":[2147483647,0,0,1,1,2,2,3,3,4,4,5,5,6,6],"right_children":[2,4,6,8,10,12,14,-1,-1,-1,-1,-1,-1,-1,-1],"split_conditions":[2.78E2,2.745E2,4.5E0,3.1399999E0,7.7425003E0,5.7054996E0,4.2949998E-1,2.0335276E-1,-8.407965E-2,3.8201442E-1,-6.7236334E-2,-3.9986405E-1,-3.6628023E-2,-3.1125927E-1,2.3481516E-2],"split_indices":[9,9,8,2,5,5,4,0,0,0,0,0,0,0,0],"split_type":[0,0,0,0,0,0,0,0,0,0,0,0,0,0,0],"sum_hessian":[3.39E2,8.9E1,2.5E2,7.6E1,1.3E1,7E1,1.8E2,2.1E1,5.5E1,1.2E1,1E0,1E1,6E1,6E0,1.74E2],"tree_param":{"num_deleted":"0","num_feature":"13","num_nodes":"15","size_leaf_vector":"0"}},{"base_weights":[-1.576519E-3,-4.199787E-1,2.4497066E-2,8.3435184E-1,-6.057017E-1,1.171534E0,6.327722E-3,5.5814743E-2,1.195713E0,-1.4089527E0,-3.5112128E-1,-2.7163029E-2,1.477999E0,3.077955E-2,-6.177212E-1],"categories":[],"categories_nodes":[],"categories_segments":[],"categories_sizes":[],"default_left":[true,true,true,true,true,true,true,false,false,false,false,false,false,false,false],"id":36,"left_children":[1,3,5,7,9,11,13,-1,-1,-1,-1,-1,-1,-1,-1],"loss_changes":[3.7194316E0,5.164528E0,6.682518E0,7.77261E-1,3.1861415E0,1.8769398E0,4.856159E0,0E0,0E0,0E0,0E0,0E0,0E0,0E0,0E0],"parents":[2147483647,0,0,1,1,2,2,3,3,4,4,5,5,6,6],"right_children":[2,4,6,8,10,12,14,-1,-1,-1,-1,-1,-1,-1,-1],"split_conditions":[1.0041E2,1.60605E0,2.4441501E2,1.6430851E1,7.73E1,1.39995E2,2.8805E1,1.6744424E-2,3.5871392E-1,-4.2268583E-1,-1.0533639E-1,-8.148909E-3,4.433997E-1,9.233865E-3,-1.8531637E-1],"split_indices":[11,7,11,0,6,11,12,0,0,0,0,0,0,0,0],"split_type":[0,0,0,0,0,0,0,0,0,0,0,0,0,0,0],"sum_hessian":[3.39E2,1.9E1,3.2E2,2E0,1.7E1,4E0,3.16E2,1E0,1E0,3E0,1.4E1,1E0,3E0,3.05E2,1.1E1],"tree_param":{"num_deleted":"0","num_feature":"13","num_nodes":"15","size_leaf_vector":"0"}},{"base_weights":[-7.899677E-4,1.0675688E-1,-9.0408094E-2,4.8699234E-2,1.5404053E0,-2.3417134E-2,-6.1565053E-1,-4.1336414E-1,1.7750764E-1,4.3273845E-1,-1.3136944E-1,-1.4608797E0,1.6865803E-2],"categories":[],"categories_nodes":[],"categories_segments":[],"categories_sizes":[],"default_left":[true,true,true,true,false,true,true,false,false,false,false,false,false],"id":37,"left_children":[1,3,5,7,-1,9,11,-1,-1,-1,-1,-1,-1],"loss_changes":[3.2866216E0,1.2826293E1,6.5302715E0,9.001022E0,0E0,8.2311945E0,1.1251684E1,0E0,0E0,0E0,0E0,0E0,0E0],"parents":[2147483647,0,0,1,1,2,2,3,3,5,5,6,6],"right_children":[2,4,6,8,-1,10,12,-1,-1,-1,-1,-1,-1],"split_conditions":[7.345E1,1.7380001E1,6.947E0,5.934E0,4.621216E-1,5.28E-1,4.9155E-1,-1.24009244E-1,5.3252295E-2,1.2982154E-1,-3.9410833E-2,-4.3826392E-1,5.059741E-3],"split_indices":[6,12,5,5,0,4,0,0,0,0,0,0,0],"split_type":[0,0,0,0,0,0,0,0,0,0,0,0,0],"sum_hessian":[3.39E2,1.54E2,1.85E2,1.49E2,5E0,1.65E2,2E1,3.2E1,1.17E2,3.1E1,1.34E2,8E0,1.2E1],"tree_param":{"num_deleted":"0","num_feature":"13","num_nodes":"13","size_leaf_vector":"0"}},{"base_weights":[-4.1027772E-4,8.872502E-1,-1.0945089E-2,1.0151831E0,2.5172567E-1,-3.0539082E-2,4.7974667E-1,8.138965E-3,-3.0632365E-1,7.0334476E-1,-1.8679237E-2],"categories":[],"categories_nodes":[],"categories_segments":[],"categories_sizes":[],"default_left":[true,true,true,false,false,true,true,false,false,false,false],"id":38,"left_children":[1,3,5,-1,-1,7,9,-1,-1,-1,-1],"loss_changes":[3.1891654E0,6.967044E-2,3.2547748E0,0E0,0E0,3.469206E0,1.4619503E0,0E0,0E0,0E0,0E0],"parents":[2147483647,0,0,1,1,2,2,5,5,6,6],"right_children":[2,4,6,-1,-1,8,10,-1,-1,-1,-1],"split_conditions":[1.1883E0,1.480315E1,2.105E1,3.0455494E-1,7.551771E-2,9.765E1,9.83E1,2.4416896E-3,-9.18971E-2,2.1100344E-1,-5.603771E-3],"split_indices":[7,0,10,0,0,6,6,0,0,0,0],"split_type":[0,0,0,0,0,0,0,0,0,0,0],"sum_hessian":[3.39E2,3E0,3.36E2,2E0,1E0,3.24E2,1.2E1,2.85E2,3.9E1,8E0,4E0],"tree_param":{"num_deleted":"0","num_feature":"13","num_nodes":"11","size_leaf_vector":"0"}},{"base_weights":[1.1719171E-3,-4.5715836E-1,2.0791037E-2,4.0882984E-1,-1.1577532E0,6.012391E-3,9.713333E-1,7.643461E-1,-4.889393E-2,-1.8343973E0,5.8145267E-1,3.0367634E-1,-4.2019475E-2,1.2059221E0,1.6489029E-2],"categories":[],"categories_nodes":[],"categories_segments":[],"categories_sizes":[],"default_left":[true,true,true,true,true,true,true,false,false,false,false,false,false,false,false],"id":39,"left_children":[1,3,5,7,9,11,13,-1,-1,-1,-1,-1,-1,-1,-1],"loss_changes":[3.0667973E0,8.96722E0,4.587767E0,1.1764697E0,1.0481201E1,4.6308055E0,1.1000943E0,0E0,0E0,0E0,0E0,0E0,0E0,0E0,0E0],"parents":[2147483647,0,0,1,1,2,2,3,3,4,4,5,5,6,6],"right_children":[2,4,6,8,10,12,14,-1,-1,-1,-1,-1,-1,-1,-1],"split_conditions":[3.5349998E0,1.63E1,8.2815E0,5E-1,5E-1,3.215E1,5.9494E-1,2.2930385E-1,-1.4668179E-2,-5.503192E-1,1.7443581E-1,9.1102906E-2,-1.2605843E-2,3.6177665E-1,4.9467087E-3],"split_indices":[12,10,5,3,3,6,0,0,0,0,0,0,0,0,0],"split_type":[0,0,0,0,0,0,0,0,0,0,0,0,0,0,0],"sum_hessian":[3.39E2,1.3E1,3.26E2,6E0,7E0,3.22E2,4E0,3E0,3E0,5E0,2E0,4.4E1,2.78E2,3E0,1E0],"tree_param":{"num_deleted":"0","num_feature":"13","num_nodes":"15","size_leaf_vector":"0"}},{"base_weights":[1.6555814E-3,7.107302E-2,-1.4611048E-1,9.5627075E-1,2.6891721E-2,-1.9601907E-1,1.6826662E0,4.1419062E-1,1.3389724E0,-5.3857714E-1,7.342608E-2,-4.735156E-2,-6.137827E-1,2.6193638E0,-9.536457E-2],"categories":[],"categories_nodes":[],"categories_segments":[],"categories_sizes":[],"default_left":[true,true,true,true,true,true,true,false,false,false,false,false,false,false,false],"id":40,"left_children":[1,3,5,7,9,11,13,-1,-1,-1,-1,-1,-1,-1,-1],"loss_changes":[3.4979484E0,9.047615E0,1.0278446E1,1.7274151E0,5.8811946E0,6.61648E0,5.2462263E0,0E0,0E0,0E0,0E0,0E0,0E0,0E0,0E0],"parents":[2147483647,0,0,1,1,2,2,3,3,4,4,5,5,6,6],"right_children":[2,4,6,8,10,12,14,-1,-1,-1,-1,-1,-1,-1,-1],"split_conditions":[4.3606997E0,3.7199997E1,9.57E1,6.7E0,6.6149995E-2,4.59E-1,1.77895E-1,1.2425719E-1,4.0169176E-1,-1.6157314E-1,2.2027826E-2,-1.4205469E-2,-1.8413481E-1,7.8580916E-1,-2.8609373E-2],"split_indices":[7,6,6,12,0,4,0,0,0,0,0,0,0,0,0],"split_type":[0,0,0,0,0,0,0,0,0,0,0,0,0,0,0],"sum_hessian":[3.39E2,2.31E2,1.08E2,1E1,2.21E2,1.06E2,2E0,5E0,5E0,1.6E1,2.05E2,7.9E1,2.7E1,1E0,1E0],"tree_param":{"num_deleted":"0","num_feature":"13","num_nodes":"15","size_leaf_vector":"0"}},{"base_weights":[3.939275E-3,1.4060182E-2,-8.497319E-1,4.897119E-1,-4.8426157E-4,-3.746132E-1,1.1283642E0,-1.2141327E0,2.206179E-2],"categories":[],"categories_nodes":[],"categories_segments":[],"categories_sizes":[],"default_left":[true,true,false,true,true,false,false,false,false],"id":41,"left_children":[1,3,-1,5,7,-1,-1,-1,-1],"loss_changes":[2.9495225E0,2.3316333E0,0E0,5.942732E0,9.0018425E0,0E0,0E0,0E0,0E0],"parents":[2147483647,0,0,1,1,3,3,4,4],"right_children":[2,4,-1,6,8,-1,-1,-1,-1],"split_conditions":[9.9666E0,4.968E0,-2.549196E-1,1.4533501E0,5.1394997E0,-1.1238396E-1,3.3850926E-1,-3.642398E-1,6.618537E-3],"split_indices":[7,5,0,7,5,0,0,0,0],"split_type":[0,0,0,0,0,0,0,0,0],"sum_hessian":[3.39E2,3.36E2,3E0,9E0,3.27E2,4E0,5E0,5E0,3.22E2],"tree_param":{"num_deleted":"0","num_feature":"13","num_nodes":"9","size_leaf_vector":"0"}},{"base_weights":[1.6210093E-3,7.6356506E-1,-7.4276472E-3,1.0461612E-2,-4.2090565E-1,-3.1640228E-2,2.3645067E-1,-7.6305026E-1,3.475647E-1],"categories":[],"categories_nodes":[],"categories_segments":[],"categories_sizes":[],"default_left":[true,false,true,true,true,false,false,false,false],"id":42,"left_children":[1,-1,3,5,7,-1,-1,-1,-1],"loss_changes":[2.3498254E0,0E0,2.49713E0,3.090197E0,3.9462016E0,0E0,0E0,0E0,0E0],"parents":[2147483647,0,0,2,2,3,3,4,4],"right_children":[2,-1,4,6,8,-1,-1,-1,-1],"split_conditions":[1.1883E0,2.2906953E-1,2.8685E1,1.8404999E1,3.14E1,-9.492069E-3,7.0935205E-2,-2.2891508E-1,1.04269415E-1],"split_indices":[7,0,12,12,12,0,0,0,0],"split_type":[0,0,0,0,0,0,0,0,0],"sum_hessian":[3.39E2,3E0,3.36E2,3.23E2,1.3E1,2.73E2,5E1,9E0,4E0],"tree_param":{"num_deleted":"0","num_feature":"13","num_nodes":"9","size_leaf_vector":"0"}},{"base_weights":[1.622897E-3,9.2152864E-2,-7.382747E-2,-1.5440941E-2,5.409751E-1,-5.549084E-1,-1.5770903E-2,1.8136287E0,-7.479734E-2,-2.4861252E-1,7.9209363E-1,7.106789E-1,-9.1572267E-1,-1.188264E0,2.775212E-2],"categories":[],"categories_nodes":[],"categories_segments":[],"categories_sizes":[],"default_left":[true,true,true,true,true,true,true,false,false,false,false,false,false,false,false],"id":43,"left_children":[1,3,5,7,9,11,13,-1,-1,-1,-1,-1,-1,-1,-1],"loss_changes":[2.32918E0,7.4933796E0,5.1862116E0,1.3815095E1,6.1453276E0,9.783623E0,8.555061E0,0E0,0E0,0E0,0E0,0E0,0E0,0E0,0E0],"parents":[2147483647,0,0,1,1,2,2,3,3,4,4,5,5,6,6],"right_children":[2,4,6,8,10,12,14,-1,-1,-1,-1,-1,-1,-1,-1],"split_conditions":[7.345E1,2.3050001E-1,7.88E1,2.6499E0,2.71945E0,8.3975E-2,7.7364996E-2,5.440886E-1,-2.2439202E-2,-7.458376E-2,2.376281E-1,2.1320367E-1,-2.7471682E-1,-3.5647923E-1,8.325636E-3],"split_indices":[6,0,6,7,7,0,0,0,0,0,0,0,0,0,0],"split_type":[0,0,0,0,0,0,0,0,0,0,0,0,0,0,0],"sum_hessian":[3.39E2,1.54E2,1.85E2,1.25E2,2.9E1,1.9E1,1.66E2,3E0,1.22E2,7E0,2.2E1,4E0,1.5E1,5E0,1.61E2],"tree_param":{"num_deleted":"0","num_feature":"13","num_nodes":"15","size_leaf_vector":"0"}},{"base_weights":[1.9449529E-3,1.3586387E-1,-4.608153E-2,5.4677945E-1,-2.1844517E-2,-3.4928244E-1,9.65047E-3,1.3840446E0,-1.0684967E-2,-1.6423337E-1,7.050301E-1,-1.3020674E0,-1.708709E-1,-5.1460004E-1,5.1965408E-2],"categories":[],"categories_nodes":[],"categories_segments":[],"categories_sizes":[],"default_left":[true,true,true,true,true,true,true,false,false,false,false,false,false,false,false],"id":44,"left_children":[1,3,5,7,9,11,13,-1,-1,-1,-1,-1,-1,-1,-1],"loss_changes":[2.1930234E0,5.84438E0,4.244767E0,1.1683428E1,6.9467134E0,6.4070396E0,4.7518544E0,0E0,0E0,0E0,0E0,0E0,0E0,0E0,0E0],"parents":[2147483647,0,0,1,1,2,2,3,3,4,4,5,5,6,6],"right_children":[2,4,6,8,10,12,14,-1,-1,-1,-1,-1,-1,-1,-1],"split_conditions":[2.78E2,3.1399999E0,3.045E2,6.6765003E0,2.745E2,3.8721002E2,3.405E0,4.152134E-1,-3.2054903E-3,-4.9270015E-2,2.1150903E-1,-3.9062023E-1,-5.1261272E-2,-1.5438002E-1,1.5589623E-2],"split_indices":[9,2,9,5,9,11,2,0,0,0,0,0,0,0,0],"split_type":[0,0,0,0,0,0,0,0,0,0,0,0,0,0,0],"sum_hessian":[3.39E2,8.9E1,2.5E2,2.4E1,6.5E1,3.8E1,2.12E2,9E0,1.5E1,5.5E1,1E1,5E0,3.3E1,1.5E1,1.97E2],"tree_param":{"num_deleted":"0","num_feature":"13","num_nodes":"15","size_leaf_vector":"0"}},{"base_weights":[1.3429235E-3,8.603003E-2,-8.385024E-2,9.445219E-1,4.3627802E-2,-4.9475777E-1,7.735358E-3,2.233064E0,1.4283054E-1,1.2992651E-2,1.2657857E0,-8.0279684E-1,-6.4885067E-3,-5.1074933E-2,5.012261E-1],"categories":[],"categories_nodes":[],"categories_segments":[],"categories_sizes":[],"default_left":[true,true,true,true,true,true,true,false,false,false,false,false,false,false,false],"id":45,"left_children":[1,3,5,7,9,11,13,-1,-1,-1,-1,-1,-1,-1,-1],"loss_changes":[2.4602327E0,6.183529E0,6.4014735E0,7.9451547E0,6.1238766E0,4.6573777E0,4.088727E0,0E0,0E0,0E0,0E0,0E0,0E0,0E0,0E0],"parents":[2147483647,0,0,1,1,2,2,3,3,4,4,5,5,6,6],"right_children":[2,4,6,8,10,12,14,-1,-1,-1,-1,-1,-1,-1,-1],"split_conditions":[5.28E-1,2.64925E0,5.485E-1,6.3050003E0,9.585E1,4.0054502E0,6.847E0,6.699192E-1,4.284916E-2,3.8977955E-3,3.7973574E-1,-2.4083906E-1,-1.9465521E-3,-1.532248E-2,1.5036784E-1],"split_indices":[4,7,4,2,6,7,5,0,0,0,0,0,0,0,0],"split_type":[0,0,0,0,0,0,0,0,0,0,0,0,0,0,0],"sum_hessian":[3.39E2,1.7E2,1.69E2,7E0,1.63E2,3E1,1.39E2,2E0,5E0,1.6E2,3E0,1.8E1,1.2E1,1.25E2,1.4E1],"tree_param":{"num_deleted":"0","num_feature":"13","num_nodes":"15","size_leaf_vector":"0"}},{"base_weights":[3.8474265E-3,4.3261337E-1,-1.1803147E-2,6.3667214E-1,-1.3467216E-1,-5.9968734E-1,1.8190324E-2,2.1280137E-1,9.3320847E-1,4.3193945E-1,-9.172535E-1,-2.5165763E-1,-1.580862E0,5.9340274E-1,-1.265111E-2],"categories":[],"categories_nodes":[],"categories_segments":[],"categories_sizes":[],"default_left":[true,true,true,true,true,true,true,false,false,false,false,false,false,false,false],"id":46,"left_children":[1,3,5,7,9,11,13,-1,-1,-1,-1,-1,-1,-1,-1],"loss_changes":[2.2866533E0,1.4748571E0,5.8120627E0,9.3264985E-1,2.1698766E0,5.0658107E0,5.577985E0,0E0,0E0,0E0,0E0,0E0,0E0,0E0,0E0],"parents":[2147483647,0,0,1,1,2,2,3,3,4,4,5,5,6,6],"right_children":[2,4,6,8,10,12,14,-1,-1,-1,-1,-1,-1,-1,-1],"split_conditions":[1.605E0,7.2805004E0,2.385E0,3.0245E-2,2.756E-2,5.92E1,3.105E0,6.384041E-2,2.7996254E-1,1.2958184E-1,-2.7517605E-1,-7.549729E-2,-4.7425863E-1,1.7802083E-1,-3.7953332E-3],"split_indices":[2,5,2,0,0,6,2,0,0,0,0,0,0,0,0],"split_type":[0,0,0,0,0,0,0,0,0,0,0,0,0,0,0],"sum_hessian":[3.39E2,1.1E1,3.28E2,8E0,3E0,1.5E1,3.13E2,4E0,4E0,2E0,1E0,1.2E1,3E0,1.5E1,2.98E2],"tree_param":{"num_deleted":"0","num_feature":"13","num_nodes":"15","size_leaf_vector":"0"}},{"base_weights":[2.171902E-3,-3.9141464E-1,1.9016061E-2,-1.1058114E-2,-1.3395414E0,-3.6214641E-3,3.8617286E-1,3.3650875E-1,-7.034273E-1,-1.7651291E0,-3.1389236E-2,1.6723631E-2,-7.711961E-1,5.105759E-1,-4.4750214E-1],"categories":[],"categories_nodes":[],"categories_segments":[],"categories_sizes":[],"default_left":[true,true,true,true,true,true,true,false,false,false,false,false,false,false,false],"id":47,"left_children":[1,3,5,7,9,11,13,-1,-1,-1,-1,-1,-1,-1,-1],"loss_changes":[2.2615187E0,5.033954E0,2.719266E0,2.8838E0,2.1715274E0,4.8383584E0,2.1990066E0,0E0,0E0,0E0,0E0,0E0,0E0,0E0,0E0],"parents":[2147483647,0,0,1,1,2,2,3,3,4,4,5,5,6,6],"right_children":[2,4,6,8,10,12,14,-1,-1,-1,-1,-1,-1,-1,-1],"split_conditions":[3.5349998E0,1.835E1,7.25E1,7.9814997E0,3.3104851E0,5.375E1,7.2805004E0,1.0095263E-1,-2.110282E-1,-5.2953875E-1,-9.416771E-3,5.0170897E-3,-2.3135884E-1,1.5317278E-1,-1.3425064E-1],"split_indices":[12,10,1,5,0,1,5,0,0,0,0,0,0,0,0],"split_type":[0,0,0,0,0,0,0,0,0,0,0,0,0,0,0],"sum_hessian":[3.39E2,1.3E1,3.26E2,1E1,3E0,3.08E2,1.8E1,7E0,3E0,2E0,1E0,3.01E2,7E0,1.6E1,2E0],"tree_param":{"num_deleted":"0","num_feature":"13","num_nodes":"15","size_leaf_vector":"0"}},{"base_weights":[-9.981422E-4,7.166508E-2,-8.716287E-2,4.5270372E-2,2.4641457E0,4.322315E-2,-2.5653335E-1,1.0886124E-1,-4.045988E-1,-1.1928452E-1,4.0151787E-1,-5.229488E-1,-6.833421E-2],"categories":[],"categories_nodes":[],"categories_segments":[],"categories_sizes":[],"default_left":[true,true,true,true,false,true,true,false,false,false,false,false,false],"id":48,"left_children":[1,3,5,7,-1,9,11,-1,-1,-1,-1,-1,-1],"loss_changes":[2.1349888E0,1.157098E1,3.456121E0,5.3078384E0,0E0,5.2299767E0,3.3737273E0,0E0,0E0,0E0,0E0,0E0,0E0],"parents":[2147483647,0,0,1,1,2,2,3,3,5,5,6,6],"right_children":[2,4,6,8,-1,10,12,-1,-1,-1,-1,-1,-1],"split_conditions":[8.255E1,8.215E1,2.12765E0,4.07E2,7.3924375E-1,1.8759501E0,3.8666998E2,3.2658372E-2,-1.2137964E-1,-3.578536E-2,1.2045536E-1,-1.5688464E-1,-2.0500263E-2],"split_indices":[6,6,7,9,0,7,11,0,0,0,0,0,0],"split_type":[0,0,0,0,0,0,0,0,0,0,0,0,0],"sum_hessian":[3.39E2,1.84E2,1.55E2,1.83E2,1E0,8.8E1,6.7E1,1.61E2,2.2E1,6.1E1,2.7E1,2.7E1,4E1],"tree_param":{"num_deleted":"0","num_feature":"13","num_nodes":"13","size_leaf_vector":"0"}},{"base_weights":[9.4230176E-4,-3.4446254E-1,1.5727395E-2,1.7789677E-1,-7.584691E-1,4.800736E-3,7.1844405E-1,4.06065E-1,-9.4745636E-2,-1.1892357E0,3.558871E-1,-2.773328E-1,3.570304E-2,9.145508E-1,-3.299141E-2],"categories":[],"categories_nodes":[],"categories_segments":[],"categories_sizes":[],"default_left":[true,true,true,true,true,true,true,false,false,false,false,false,false,false,false],"id":49,"left_children":[1,3,5,7,9,11,13,-1,-1,-1,-1,-1,-1,-1,-1],"loss_changes":[1.741744E0,3.1625717E0,2.5073698E0,4.7393116E-1,4.263453E0,2.8260021E0,7.6697993E-1,0E0,0E0,0E0,0E0,0E0,0E0,0E0,0E0],"parents":[2147483647,0,0,1,1,2,2,3,3,4,4,5,5,6,6],"right_children":[2,4,6,8,10,12,14,-1,-1,-1,-1,-1,-1,-1,-1],"split_conditions":[3.5349998E0,1.63E1,8.2815E0,5E-1,5E-1,1.485E1,5.9494E-1,1.218195E-1,-2.8423691E-2,-3.5677072E-1,1.0676613E-1,-8.3199844E-2,1.0710913E-2,2.7436525E-1,-9.897423E-3],"split_indices":[12,10,5,3,3,10,0,0,0,0,0,0,0,0,0],"split_type":[0,0,0,0,0,0,0,0,0,0,0,0,0,0,0],"sum_hessian":[3.39E2,1.3E1,3.26E2,6E0,7E0,3.22E2,4E0,3E0,3E0,5E0,2E0,3.1E1,2.91E2,3E0,1E0],"tree_param":{"num_deleted":"0","num_feature":"13","num_nodes":"15","size_leaf_vector":"0"}},{"base_weights":[7.631961E-4,2.4610442E-1,-1.9489614E-2,9.451165E-1,-1.795559E-1,-8.969731E-1,4.5172527E-4,1.0881761E0,-1.7120981E-1,-9.923423E-1,-5.028216E-3,2.0626576E-1,-1.3795217E0,-2.8117768E-2,4.379923E-1],"categories":[],"categories_nodes":[],"categories_segments":[],"categories_sizes":[],"default_left":[true,true,true,true,true,true,true,false,false,false,false,false,false,false,false],"id":50,"left_children":[1,3,5,7,9,11,13,-1,-1,-1,-1,-1,-1,-1,-1],"loss_changes":[1.6942053E0,7.9057856E0,5.5123363E0,1.7833176E0,2.4065237E0,4.011113E0,3.874912E0,0E0,0E0,0E0,0E0,0E0,0E0,0E0,0E0],"parents":[2147483647,0,0,1,1,2,2,3,3,4,4,5,5,6,6],"right_children":[2,4,6,8,10,12,14,-1,-1,-1,-1,-1,-1,-1,-1],"split_conditions":[1.564E0,3.8015E2,1.61105E0,1.944795E1,3.7092252E0,3.4244E2,7.155E-1,3.2645285E-1,-5.1362947E-2,-2.977027E-1,-1.5084649E-3,6.187973E-2,-4.1385654E-1,-8.435331E-3,1.313977E-1],"split_indices":[7,11,7,0,0,11,4,0,0,0,0,0,0,0,0],"split_type":[0,0,0,0,0,0,0,0,0,0,0,0,0,0,0],"sum_hessian":[3.39E2,2.5E1,3.14E2,9E0,1.6E1,6E0,3.08E2,8E0,1E0,2E0,1.4E1,2E0,4E0,2.9E2,1.8E1],"tree_param":{"num_deleted":"0","num_feature":"13","num_nodes":"15","size_leaf_vector":"0"}},{"base_weights":[-2.098897E-4,-3.3410814E-1,1.731011E-2,-1.5187706E-1,-1.1338943E0,-1.5628422E-2,2.515644E-1,2.5935555E-1,-4.548494E-1,1.86209E-2,-8.704407E-1,-1.3219513E0,3.691692E-1],"categories":[],"categories_nodes":[],"categories_segments":[],"categories_sizes":[],"default_left":[true,true,true,true,false,true,true,false,false,false,false,false,false],"id":51,"left_children":[1,3,5,7,-1,9,11,-1,-1,-1,-1,-1,-1],"loss_changes":[1.9947487E0,2.305468E0,2.5039134E0,1.9868492E0,0E0,8.36008E0,7.8901434E0,0E0,0E0,0E0,0E0,0E0,0E0],"parents":[2147483647,0,0,1,1,2,2,3,3,5,5,6,6],"right_children":[2,4,6,8,-1,10,12,-1,-1,-1,-1,-1,-1],"split_conditions":[9.268E1,6.7405E0,6.965E-1,6.465E-1,-3.401683E-1,6.86E-1,1.455085E0,7.780667E-2,-1.3645482E-1,5.5862702E-3,-2.6113224E-1,-3.965854E-1,1.10750765E-1],"split_indices":[11,5,4,4,0,4,0,0,0,0,0,0,0],"split_type":[0,0,0,0,0,0,0,0,0,0,0,0,0],"sum_hessian":[3.39E2,1.6E1,3.23E2,1.4E1,2E0,2.84E2,3.9E1,6E0,8E0,2.74E2,1E1,2E0,3.7E1],"tree_param":{"num_deleted":"0","num_feature":"13","num_nodes":"13","size_leaf_vector":"0"}},{"base_weights":[-2.912224E-3,5.7084434E-2,-7.404344E-2,3.5242386E-2,2.0380106E0,-3.0296144E-1,-1.2524589E-2,1.9041945E-1,-9.7010545E-2,-7.587399E-1,-4.0584043E-2,4.4549137E-1,-7.486745E-2],"categories":[],"categories_nodes":[],"categories_segments":[],"categories_sizes":[],"default_left":[true,true,true,true,false,true,true,false,false,false,false,false,false],"id":52,"left_children":[1,3,5,7,-1,9,11,-1,-1,-1,-1,-1,-1],"loss_changes":[1.4552227E0,7.93266E0,2.193118E0,3.7946353E0,0E0,3.9155436E0,3.574052E0,0E0,0E0,0E0,0E0,0E0,0E0],"parents":[2147483647,0,0,1,1,2,2,3,3,5,5,6,6],"right_children":[2,4,6,8,-1,10,12,-1,-1,-1,-1,-1,-1],"split_conditions":[8.255E1,8.215E1,8.845E1,1.81E1,6.114032E-1,1.815E1,9.165E1,5.7125837E-2,-2.9103165E-2,-2.2762197E-1,-1.2175214E-2,1.3364741E-1,-2.2460235E-2],"split_indices":[6,6,6,10,0,10,6,0,0,0,0,0,0],"split_type":[0,0,0,0,0,0,0,0,0,0,0,0,0],"sum_hessian":[3.39E2,1.84E2,1.55E2,1.83E2,1E0,3.2E1,1.23E2,8.4E1,9.9E1,1.1E1,2.1E1,1.4E1,1.09E2],"tree_param":{"num_deleted":"0","num_feature":"13","num_nodes":"13","size_leaf_vector":"0"}},{"base_weights":[-5.361641E-4,-1.4068493E-2,3.4093615E-1,-1.2232103E-1,3.059379E-2,1.4382353E-1,9.50037E-1,-3.086342E-1,1.9677407E-1,4.5143285E-1,-1.1041016E-2,-1.6288042E-1,2.7919757E-1],"categories":[],"categories_nodes":[],"categories_segments":[],"categories_sizes":[],"default_left":[true,true,true,true,true,true,false,false,false,false,false,false,false],"id":53,"left_children":[1,3,5,7,9,11,-1,-1,-1,-1,-1,-1,-1],"loss_changes":[1.5759077E0,1.5895586E0,1.4241614E0,5.7680855E0,4.0875063E0,5.021931E-1,0E0,0E0,0E0,0E0,0E0,0E0,0E0],"parents":[2147483647,0,0,1,1,2,2,3,3,4,4,5,5],"right_children":[2,4,6,8,10,12,-1,-1,-1,-1,-1,-1,-1],"split_conditions":[2.105E1,5.934E0,2.40795E0,5.5E0,6.0035E0,1.499E1,2.850111E-1,-9.259026E-2,5.903222E-2,1.3542986E-1,-3.312305E-3,-4.886413E-2,8.375928E-2],"split_indices":[10,5,7,8,5,12,0,0,0,0,0,0,0],"split_type":[0,0,0,0,0,0,0,0,0,0,0,0,0],"sum_hessian":[3.39E2,3.27E2,1.2E1,9.5E1,2.32E2,1E1,2E0,6E1,3.5E1,2E1,2.12E2,3E0,7E0],"tree_param":{"num_deleted":"0","num_feature":"13","num_nodes":"13","size_leaf_vector":"0"}},{"base_weights":[8.5558754E-4,3.411178E-2,-1.3772485E-1,-4.830484E-3,8.193197E-1,-4.0803447E-1,1.6348561E-2,-1.1877425E0,1.8024305E-2,1.4683491E0,2.301327E-1,-6.295019E-1,-3.5029985E-2,5.2907515E-1,-9.8044805E-2],"categories":[],"categories_nodes":[],"categories_segments":[],"categories_sizes":[],"default_left":[true,true,true,true,true,true,true,false,false,false,false,false,false,false,false],"id":54,"left_children":[1,3,5,7,9,11,13,-1,-1,-1,-1,-1,-1,-1,-1],"loss_changes":[1.5716416E0,8.412846E0,2.7554073E0,7.131666E0,4.6332817E0,1.9605484E0,2.5739317E0,0E0,0E0,0E0,0E0,0E0,0E0,0E0,0E0],"parents":[2147483647,0,0,1,1,2,2,3,3,4,4,5,5,6,6],"right_children":[2,4,6,8,10,12,14,-1,-1,-1,-1,-1,-1,-1,-1],"split_conditions":[5.6808653E0,3.69503E0,8.88754E0,5.1394997E0,7.065E-1,6.965E-1,9.773835E0,-3.5632277E-1,5.4072915E-3,4.4050476E-1,6.9039814E-2,-1.8885057E-1,-1.05089955E-2,1.5872255E-1,-2.9413443E-2],"split_indices":[0,0,0,5,4,4,0,0,0,0,0,0,0,0,0],"split_type":[0,0,0,0,0,0,0,0,0,0,0,0,0,0,0],"sum_hessian":[3.39E2,2.74E2,6.5E1,2.62E2,1.2E1,2.3E1,4.2E1,4E0,2.58E2,5E0,7E0,1.4E1,9E0,7E0,3.5E1],"tree_param":{"num_deleted":"0","num_feature":"13","num_nodes":"15","size_leaf_vector":"0"}},{"base_weights":[8.596322E-4,-1.5759346E-1,2.7446419E-2,-6.198833E-2,-1.217654E0,6.158562E-1,1.083335E-2,-4.7912052E-1,1.1685527E-1,-1.6002964E0,-3.4863472E-2,-2.3872884E-1,9.40506E-1,5.0506815E-2,-2.5645113E-1],"categories":[],"categories_nodes":[],"categories_segments":[],"categories_sizes":[],"default_left":[true,true,true,true,true,true,true,false,false,false,false,false,false,false,false],"id":55,"left_children":[1,3,5,7,9,11,13,-1,-1,-1,-1,-1,-1,-1,-1],"loss_changes":[1.4366632E0,4.8905334E0,2.8477132E0,3.4876533E0,1.7545509E0,2.444053E0,3.0351217E0,0E0,0E0,0E0,0E0,0E0,0E0,0E0,0E0],"parents":[2147483647,0,0,1,1,2,2,3,3,4,4,5,5,6,6],"right_children":[2,4,6,8,10,12,14,-1,-1,-1,-1,-1,-1,-1,-1],"split_conditions":[4.9565002E-2,4.7035E-2,5.538E-2,3.9157E2,5.65E1,5.9915E0,6.954E0,-1.4373617E-1,3.5056584E-2,-4.8008892E-1,-1.0459042E-2,-7.1618654E-2,2.8215182E-1,1.51520455E-2,-7.693534E-2],"split_indices":[0,0,0,11,1,5,5,0,0,0,0,0,0,0,0],"split_type":[0,0,0,0,0,0,0,0,0,0,0,0,0,0,0],"sum_hessian":[3.39E2,4.8E1,2.91E2,4.5E1,3E0,7E0,2.84E2,1.3E1,3.2E1,2E0,1E0,2E0,5E0,2.48E2,3.6E1],"tree_param":{"num_deleted":"0","num_feature":"13","num_nodes":"15","size_leaf_vector":"0"}},{"base_weights":[-7.2323997E-4,-1.074208E-2,4.774219E-1,1.039459E-1,-4.550831E-2,-4.1020713E-3,6.708519E-1,6.7116684E-1,-1.9823926E-2,6.470645E-3,-4.70853E-1,4.447937E-2,-5.0632477E-2,7.762575E-1,1.24614716E-1],"categories":[],"categories_nodes":[],"categories_segments":[],"categories_sizes":[],"default_left":[true,true,true,true,true,true,true,false,false,false,false,false,false,false,false],"id":56,"left_children":[1,3,5,7,9,11,13,-1,-1,-1,-1,-1,-1,-1,-1],"loss_changes":[1.6338849E0,1.336478E0,6.547401E-1,5.489282E0,5.6850524E0,9.033643E-3,1.9114923E-1,0E0,0E0,0E0,0E0,0E0,0E0,0E0,0E0],"parents":[2147483647,0,0,1,1,2,2,3,3,4,4,5,5,6,6],"right_children":[2,4,6,8,10,12,14,-1,-1,-1,-1,-1,-1,-1,-1],"split_conditions":[8.2815E0,4.13E1,3.975E0,4.31945E0,1.775E1,1.047155E0,5.9494E-1,2.0135006E-1,-5.9471778E-3,1.9411935E-3,-1.412559E-1,1.3343812E-2,-1.5189744E-2,2.3287727E-1,3.7384417E-2],"split_indices":[5,6,12,7,1,0,0,0,0,0,0,0,0,0,0],"split_type":[0,0,0,0,0,0,0,0,0,0,0,0,0,0,0],"sum_hessian":[3.39E2,3.33E2,6E0,7.7E1,2.56E2,2E0,4E0,1.3E1,6.4E1,2.29E2,2.7E1,1E0,1E0,3E0,1E0],"tree_param":{"num_deleted":"0","num_feature":"13","num_nodes":"15","size_leaf_vector":"0"}},{"base_weights":[4.4803479E-4,8.423267E-2,-4.4465568E-2,1.3554327E-1,-5.579571E-1,-8.283491E-1,-2.9945023E-2,-6.4938046E-2,3.2661217E-1,-1.1017933E0,9.747048E-2,-1.158198E0,8.059883E-2,5.568755E-1,-4.9089618E-2],"categories":[],"categories_nodes":[],"categories_segments":[],"categories_sizes":[],"default_left":[true,true,true,true,true,true,true,false,false,false,false,false,false,false,false],"id":57,"left_children":[1,3,5,7,9,11,13,-1,-1,-1,-1,-1,-1,-1,-1],"loss_changes":[1.2831893E0,3.9968128E0,2.5020916E0,4.2731476E0,3.3153994E0,1.2926116E0,2.4876795E0,0E0,0E0,0E0,0E0,0E0,0E0,0E0,0E0],"parents":[2147483647,0,0,1,1,2,2,3,3,4,4,5,5,6,6],"right_children":[2,4,6,8,10,12,14,-1,-1,-1,-1,-1,-1,-1,-1],"split_conditions":[1.7849998E1,4.125E2,3.5349998E0,7.3999996E0,6.885E1,3.3104851E0,4.51E0,-1.9481415E-2,9.798366E-2,-3.30538E-1,2.9241145E-2,-3.474594E-1,2.417965E-2,1.6706267E-1,-1.4726886E-2],"split_indices":[10,9,12,12,6,0,12,0,0,0,0,0,0,0,0],"split_type":[0,0,0,0,0,0,0,0,0,0,0,0,0,0,0],"sum_hessian":[3.39E2,1.18E2,2.21E2,1.1E2,8E0,3E0,2.18E2,5.4E1,5.6E1,4E0,4E0,2E0,1E0,6E0,2.12E2],"tree_param":{"num_deleted":"0","num_feature":"13","num_nodes":"15","size_leaf_vector":"0"}},{"base_weights":[-8.44581E-4,5.8375254E-2,-7.106782E-2,4.2251967E-2,1.5125303E0,3.6546264E-2,-2.1087055E-1,-5.7763386E-1,6.639212E-2,-4.0714283E-2,4.2041257E-1,-1.1630181E-1,-6.0202277E-1],"categories":[],"categories_nodes":[],"categories_segments":[],"categories_sizes":[],"default_left":[true,true,true,true,false,true,true,false,false,false,false,false,false],"id":58,"left_children":[1,3,5,7,-1,9,11,-1,-1,-1,-1,-1,-1],"loss_changes":[1.4180756E0,4.2735596E0,2.3546863E0,2.7917528E0,0E0,2.6566541E0,2.4453561E0,0E0,0E0,0E0,0E0,0E0,0E0],"parents":[2147483647,0,0,1,1,2,2,3,3,5,5,6,6],"right_children":[2,4,6,8,-1,10,12,-1,-1,-1,-1,-1,-1],"split_conditions":[8.255E1,8.215E1,2.12765E0,2.15625E0,4.537591E-1,2.0162501E0,4.6053753E0,-1.7329016E-1,1.9917637E-2,-1.2214285E-2,1.2612377E-1,-3.4890544E-2,-1.8060684E-1],"split_indices":[6,6,7,7,0,7,0,0,0,0,0,0,0],"split_type":[0,0,0,0,0,0,0,0,0,0,0,0,0],"sum_hessian":[3.39E2,1.84E2,1.55E2,1.83E2,1E0,8.8E1,6.7E1,6E0,1.77E2,7.4E1,1.4E1,5.5E1,1.2E1],"tree_param":{"num_deleted":"0","num_feature":"13","num_nodes":"13","size_leaf_vector":"0"}},{"base_weights":[-6.6182192E-6,-8.0434475E-3,3.8346592E-1,-9.1204405E-2,3.7809316E-2,1.4492035E-2,5.2815706E-1,-5.995295E-1,-6.058076E-4,1.0487132E0,-1.6354525E-2,3.7590027E-2,-1.5851974E-2,5.993109E-1,1.2177086E-1],"categories":[],"categories_nodes":[],"categories_segments":[],"categories_sizes":[],"default_left":[true,true,true,true,true,true,true,false,false,false,false,false,false,false,false],"id":59,"left_children":[1,3,5,7,9,11,13,-1,-1,-1,-1,-1,-1,-1,-1],"loss_changes":[1.0509316E0,1.2770437E0,3.6605656E-1,5.4800086E0,1.184411E1,2.698533E-3,7.160115E-2,0E0,0E0,0E0,0E0,0E0,0E0,0E0,0E0],"parents":[2147483647,0,0,1,1,2,2,3,3,4,4,5,5,6,6],"right_children":[2,4,6,8,10,12,14,-1,-1,-1,-1,-1,-1,-1,-1],"split_conditions":[8.2815E0,9.01E0,3.975E0,6.142E0,9.54E0,1.047155E0,5.9494E-1,-1.7985886E-1,-1.8174227E-4,3.1461397E-1,-4.9063577E-3,1.1277009E-2,-4.7555924E-3,1.7979327E-1,3.653126E-2],"split_indices":[5,12,12,5,12,0,0,0,0,0,0,0,0,0,0],"split_type":[0,0,0,0,0,0,0,0,0,0,0,0,0,0,0],"sum_hessian":[3.39E2,3.33E2,6E0,1.18E2,2.15E2,2E0,4E0,1.7E1,1.01E2,1E1,2.05E2,1E0,1E0,3E0,1E0],"tree_param":{"num_deleted":"0","num_feature":"13","num_nodes":"15","size_leaf_vector":"0"}},{"base_weights":[1.0320649E-3,-3.2617548E-1,9.899041E-3,-1.1869748E-2,-7.160902E-1,-1.2186346E-2,2.0382938E-1,2.2469394E-1,-1.8632507E-1,-1.6724174E-1,3.505741E-2,4.7850095E-2,6.317885E-1],"categories":[],"categories_nodes":[],"categories_segments":[],"categories_sizes":[],"default_left":[true,true,true,true,false,true,true,false,false,false,false,false,false],"id":60,"left_children":[1,3,5,7,-1,9,11,-1,-1,-1,-1,-1,-1],"loss_changes":[9.896848E-1,1.0944722E0,1.4244486E0,2.894849E-1,0E0,2.1961575E0,2.2393625E0,0E0,0E0,0E0,0E0,0E0,0E0],"parents":[2147483647,0,0,1,1,2,2,3,3,5,5,6,6],"right_children":[2,4,6,8,-1,10,12,-1,-1,-1,-1,-1,-1],"split_conditions":[4.005E-1,2.5E0,3.75E1,8.04E0,-2.1482708E-1,1.07025E-1,7.565E-2,6.740818E-2,-5.5897523E-2,-5.0172523E-2,1.0517224E-2,1.4355029E-2,1.8953656E-1],"split_indices":[4,8,1,12,0,0,0,0,0,0,0,0,0],"split_type":[0,0,0,0,0,0,0,0,0,0,0,0,0],"sum_hessian":[3.39E2,8E0,3.31E2,5E0,3E0,2.98E2,3.3E1,2E0,3E0,6.9E1,2.29E2,2.5E1,8E0],"tree_param":{"num_deleted":"0","num_feature":"13","num_nodes":"13","size_leaf_vector":"0"}},{"base_weights":[6.075621E-4,-1.3393666E-1,2.0537995E-2,1.6950775E-2,-5.8813995E-1,8.620734E-1,9.018675E-3,1.3735645E-1,-3.915372E-1,-6.71624E-1,1.2335014E-1,1.0839329E0,9.824753E-2,2.790277E-1,-1.6015563E-2],"categories":[],"categories_nodes":[],"categories_segments":[],"categories_sizes":[],"default_left":[true,true,true,true,true,true,true,false,false,false,false,false,false,false,false],"id":61,"left_children":[1,3,5,7,9,11,13,-1,-1,-1,-1,-1,-1,-1,-1],"loss_changes":[9.144691E-1,3.0254467E0,2.8713179E0,1.7260451E0,7.3622346E-1,5.713544E-1,1.9917533E0,0E0,0E0,0E0,0E0,0E0,0E0,0E0,0E0],"parents":[2147483647,0,0,1,1,2,2,3,3,4,4,5,5,6,6],"right_children":[2,4,6,8,10,12,14,-1,-1,-1,-1,-1,-1,-1,-1],"split_conditions":[5.09E0,4.66E0,5.23E0,6.3497E0,2.0112E-1,3.5111E-1,3.105E0,4.1206934E-2,-1.1746116E-1,-2.0148721E-1,3.7005045E-2,3.2517987E-1,2.947426E-2,8.3708316E-2,-4.804669E-3],"split_indices":[12,12,12,7,0,0,2,0,0,0,0,0,0,0,0],"split_type":[0,0,0,0,0,0,0,0,0,0,0,0,0,0,0],"sum_hessian":[3.39E2,4.3E1,2.96E2,3.3E1,1E1,3E0,2.93E2,2.6E1,7E0,9E0,1E0,2E0,1E0,2.4E1,2.69E2],"tree_param":{"num_deleted":"0","num_feature":"13","num_nodes":"15","size_leaf_vector":"0"}},{"base_weights":[9.924426E-4,-9.168527E-3,2.5728518E-1,2.8820366E-2,-1.19860314E-1,8.6123034E-2,7.9911804E-1,-3.8204452E-3,3.162123E-1,-4.8268378E-1,8.742492E-3,-9.626611E-2,2.5415835E-1],"categories":[],"categories_nodes":[],"categories_segments":[],"categories_sizes":[],"default_left":[true,true,true,true,true,true,false,false,false,false,false,false,false],"id":62,"left_children":[1,3,5,7,9,11,-1,-1,-1,-1,-1,-1,-1],"loss_changes":[8.8778114E-1,1.3827136E0,1.1368142E0,2.299481E0,3.9236693E0,3.615928E-1,0E0,0E0,0E0,0E0,0E0,0E0,0E0],"parents":[2147483647,0,0,1,1,2,2,3,3,4,4,5,5],"right_children":[2,4,6,8,10,12,-1,-1,-1,-1,-1,-1,-1],"split_conditions":[2.105E1,9.395E1,2.40795E0,1.744E1,9.605E1,3.94375E2,2.3973542E-1,-1.1461336E-3,9.486369E-2,-1.4480513E-1,2.6227476E-3,-2.8879834E-2,7.6247506E-2],"split_indices":[10,6,7,12,6,11,0,0,0,0,0,0,0],"split_type":[0,0,0,0,0,0,0,0,0,0,0,0,0],"sum_hessian":[3.39E2,3.27E2,1.2E1,2.44E2,8.3E1,1E1,2E0,2.2E2,2.4E1,2.1E1,6.2E1,5E0,5E0],"tree_param":{"num_deleted":"0","num_feature":"13","num_nodes":"13","size_leaf_vector":"0"}},{"base_weights":[1.3964555E-3,2.5399089E-2,-1.0251176E-1,-4.1343364E-1,4.167867E-2,2.7338198E-1,-2.4428996E-1,-2.9183388E-2,-7.918472E-1,-1.06787905E-2,2.4463901E-1,-8.378563E-1,4.6465278E-1,1.0372643E-1,-5.059216E-1],"categories":[],"categories_nodes":[],"categories_segments":[],"categories_sizes":[],"default_left":[true,true,true,true,true,true,true,false,false,false,false,false,false,false,false],"id":63,"left_children":[1,3,5,7,9,11,13,-1,-1,-1,-1,-1,-1,-1,-1],"loss_changes":[8.5058784E-1,1.9961232E0,3.4775705E0,1.4309464E0,2.8505113E0,4.215166E0,4.3319263E0,0E0,0E0,0E0,0E0,0E0,0E0,0E0,0E0],"parents":[2147483647,0,0,1,1,2,2,3,3,4,4,5,5,6,6],"right_children":[2,4,6,8,10,12,14,-1,-1,-1,-1,-1,-1,-1,-1],"split_conditions":[6.818E0,2.637E-2,3.8479498E2,4.225E-1,6.3875E0,6.8425E0,5.055E1,-8.755017E-3,-2.3755418E-1,-3.2036372E-3,7.3391706E-2,-2.513569E-1,1.3939583E-1,3.1117931E-2,-1.517765E-1],"split_indices":[5,0,11,4,5,5,6,0,0,0,0,0,0,0,0],"split_type":[0,0,0,0,0,0,0,0,0,0,0,0,0,0,0],"sum_hessian":[3.39E2,2.76E2,6.3E1,9E0,2.67E2,1.7E1,4.6E1,5E0,4E0,2.13E2,5.4E1,2E0,1.5E1,2E1,2.6E1],"tree_param":{"num_deleted":"0","num_feature":"13","num_nodes":"15","size_leaf_vector":"0"}},{"base_weights":[-2.243042E-4,2.8499117E-1,-8.840408E-3,-2.0442943E-1,6.453431E-1,-7.0076907E-1,-3.7530137E-4,2.736365E-1,-6.143522E-1,3.2965977E-2,9.4329023E-1,-9.426711E-1,1.2468576E-2,1.1448256E-2,-5.442053E-1],"categories":[],"categories_nodes":[],"categories_segments":[],"categories_sizes":[],"default_left":[true,true,true,true,true,true,true,false,false,false,false,false,false,false,false],"id":64,"left_children":[1,3,5,7,9,11,13,-1,-1,-1,-1,-1,-1,-1,-1],"loss_changes":[8.3805114E-1,1.8955641E0,1.9384868E0,1.1479598E0,1.0636394E0,7.0188844E-1,2.115272E0,0E0,0E0,0E0,0E0,0E0,0E0,0E0,0E0],"parents":[2147483647,0,0,1,1,2,2,3,3,4,4,5,5,6,6],"right_children":[2,4,6,8,10,12,14,-1,-1,-1,-1,-1,-1,-1,-1],"split_conditions":[4.968E0,1.4533501E0,5.024E0,6.84E-1,4.5734997E0,1.2616289E1,2.9615E1,8.209095E-2,-1.8430567E-1,9.889794E-3,2.829871E-1,-2.8280136E-1,3.740573E-3,3.434477E-3,-1.6326159E-1],"split_indices":[5,7,5,4,5,0,12,0,0,0,0,0,0,0,0],"split_type":[0,0,0,0,0,0,0,0,0,0,0,0,0,0,0],"sum_hessian":[3.39E2,9E0,3.3E2,4E0,5E0,3E0,3.27E2,2E0,2E0,2E0,3E0,2E0,1E0,3.21E2,6E0],"tree_param":{"num_deleted":"0","num_feature":"13","num_nodes":"15","size_leaf_vector":"0"}},{"base_weights":[-8.8727893E-4,1.9266613E-2,-1.2096991E-1,-8.197251E-3,2.2790995E-1,4.6900046E-1,-2.3046498E-1,5.2126534E-3,-8.643818E-1,1.9598265E0,1.16038956E-1,-4.7628083E-3,1.2601935E0,3.427143E-1,-2.9981843E-1],"categories":[],"categories_nodes":[],"categories_segments":[],"categories_sizes":[],"default_left":[true,true,true,true,true,true,true,false,false,false,false,false,false,false,false],"id":65,"left_children":[1,3,5,7,9,11,13,-1,-1,-1,-1,-1,-1,-1,-1],"loss_changes":[8.2517564E-1,1.6750727E0,3.2734318E0,2.978176E0,6.360125E0,3.0047076E0,1.7723346E0,0E0,0E0,0E0,0E0,0E0,0E0,0E0,0E0],"parents":[2147483647,0,0,1,1,2,2,3,3,4,4,5,5,6,6],"right_children":[2,4,6,8,10,12,14,-1,-1,-1,-1,-1,-1,-1,-1],"split_conditions":[9.775E1,1.8505001E1,2.62355E2,1.8134998E1,1.4746499E-1,1.33815E2,1.30075E0,1.5637961E-3,-2.5931454E-1,5.8794796E-1,3.4811687E-2,-1.4288425E-3,3.7805805E-1,1.02814294E-1,-8.994553E-2],"split_indices":[6,12,11,12,0,11,7,0,0,0,0,0,0,0,0],"split_type":[0,0,0,0,0,0,0,0,0,0,0,0,0,0,0],"sum_hessian":[3.39E2,2.91E2,4.8E1,2.58E2,3.3E1,7E0,4.1E1,2.55E2,3E0,1E0,3.2E1,5E0,2E0,4E0,3.7E1],"tree_param":{"num_deleted":"0","num_feature":"13","num_nodes":"15","size_leaf_vector":"0"}},{"base_weights":[1.5978729E-3,-2.052476E-1,1.2445944E-2,-7.479823E-1,-8.3017476E-2,3.6579862E-1,-3.5006257E-3,2.0411833E-1,-2.9712117E-1,8.748779E-1,-1.4231894E-2,-9.384358E-1,8.652755E-3],"categories":[],"categories_nodes":[],"categories_segments":[],"categories_sizes":[],"default_left":[true,true,true,false,true,true,true,false,false,false,false,false,false],"id":66,"left_children":[1,3,5,-1,7,9,11,-1,-1,-1,-1,-1,-1],"loss_changes":[7.654718E-1,1.0656594E0,1.8269438E0,0E0,9.8280036E-1,2.7209706E0,3.5418959E0,0E0,0E0,0E0,0E0,0E0,0E0],"parents":[2147483647,0,0,1,1,2,2,4,4,5,5,6,6],"right_children":[2,4,6,-1,8,10,12,-1,-1,-1,-1,-1,-1],"split_conditions":[9.268E1,7.76E1,2.9064E2,-2.2439471E-1,6.465E-1,1.6005E1,3.03815E2,6.12355E-2,-8.9136355E-2,2.624634E-1,-4.2695682E-3,-2.8153074E-1,2.5958265E-3],"split_indices":[11,6,11,0,4,12,11,0,0,0,0,0,0],"split_type":[0,0,0,0,0,0,0,0,0,0,0,0,0],"sum_hessian":[3.39E2,1.6E1,3.23E2,2E0,1.4E1,1.3E1,3.1E2,6E0,8E0,5E0,8E0,3E0,3.07E2],"tree_param":{"num_deleted":"0","num_feature":"13","num_nodes":"13","size_leaf_vector":"0"}},{"base_weights":[3.15669E-4,-5.749297E-2,3.8198438E-2,1.7776337E0,-8.4453866E-2,3.1787118E-1,-2.2896212E-2,-4.5354956E-1,-3.0563354E-2,5.169192E-1,-3.588246E-1,6.5664604E-2,-1.3071206E-1],"categories":[],"categories_nodes":[],"categories_segments":[],"categories_sizes":[],"default_left":[true,true,true,false,true,true,true,false,false,false,false,false,false],"id":67,"left_children":[1,3,5,-1,7,9,11,-1,-1,-1,-1,-1,-1],"loss_changes":[7.467796E-1,6.8294773E0,3.527099E0,0E0,2.6514993E0,5.169195E0,1.6317874E0,0E0,0E0,0E0,0E0,0E0,0E0],"parents":[2147483647,0,0,1,1,2,2,4,4,5,5,6,6],"right_children":[2,4,6,-1,8,10,12,-1,-1,-1,-1,-1,-1],"split_conditions":[5.055E-1,2.64925E0,5.28E-1,5.3329015E-1,3.4584498E0,5.9679003E0,3.89905E2,-1.3606487E-1,-9.169007E-3,1.5507576E-1,-1.0764739E-1,1.9699382E-2,-3.921362E-2],"split_indices":[4,7,4,0,7,7,11,0,0,0,0,0,0],"split_type":[0,0,0,0,0,0,0,0,0,0,0,0,0],"sum_hessian":[3.39E2,1.34E2,2.05E2,1E0,1.33E2,3.6E1,1.69E2,1.6E1,1.17E2,2.8E1,8E0,9.3E1,7.6E1],"tree_param":{"num_deleted":"0","num_feature":"13","num_nodes":"13","size_leaf_vector":"0"}},{"base_weights":[1.4444884E-3,-7.8898845E-3,2.3684677E-1,-4.1488897E-2,6.386316E-2,-1.497531E-1,3.6780205E-1,-7.729376E-1,-2.467648E-2,2.9643795E-1,-5.168587E-2,-3.1528664E-1,1.0520299E-2,-9.055662E-2,5.771781E-1],"categories":[],"categories_nodes":[],"categories_segments":[],"categories_sizes":[],"default_left":[true,true,true,true,true,true,true,false,false,false,false,false,false,false,false],"id":68,"left_children":[1,3,5,7,9,11,13,-1,-1,-1,-1,-1,-1,-1,-1],"loss_changes":[7.4896187E-1,7.9340225E-1,7.132342E-1,2.7355492E0,2.8370697E0,1.09439395E-1,1.011961E0,0E0,0E0,0E0,0E0,0E0,0E0,0E0,0E0],"parents":[2147483647,0,0,1,1,2,2,3,3,4,4,5,5,6,6],"right_children":[2,4,6,8,10,12,14,-1,-1,-1,-1,-1,-1,-1,-1],"split_conditions":[2.105E1,6.5E0,1.4695E1,5.1394997E0,4.65786E0,1.9841499E0,3.88385E2,-2.3188129E-1,-7.402944E-3,8.893139E-2,-1.5505762E-2,-9.458599E-2,3.15609E-3,-2.7166987E-2,1.7315345E-1],"split_indices":[10,8,12,5,0,7,11,0,0,0,0,0,0,0,0],"split_type":[0,0,0,0,0,0,0,0,0,0,0,0,0,0,0],"sum_hessian":[3.39E2,3.27E2,1.2E1,2.23E2,1.04E2,3E0,9E0,4E0,2.19E2,3.4E1,7E1,1E0,2E0,3E0,6E0],"tree_param":{"num_deleted":"0","num_feature":"13","num_nodes":"15","size_leaf_vector":"0"}},{"base_weights":[6.836162E-4,-5.6469157E-2,4.1957166E-2,1.4684445E-2,-2.338436E-1,2.5255463E-1,-1.2957096E-2,5.5903755E-2,-6.610117E-1,-8.946495E-1,-7.14821E-2,-4.8552656E-1,3.2360122E-1,2.3686488E-1,-5.7273913E-2],"categories":[],"categories_nodes":[],"categories_segments":[],"categories_sizes":[],"default_left":[true,true,true,true,true,true,true,false,false,false,false,false,false,false,false],"id":69,"left_children":[1,3,5,7,9,11,13,-1,-1,-1,-1,-1,-1,-1,-1],"loss_changes":[8.0439454E-1,1.8082124E0,2.2931037E0,2.9056811E0,4.3349156E0,2.3070812E0,1.762834E0,0E0,0E0,0E0,0E0,0E0,0E0,0E0,0E0],"parents":[2147483647,0,0,1,1,2,2,3,3,4,4,5,5,6,6],"right_children":[2,4,6,8,10,12,14,-1,-1,-1,-1,-1,-1,-1,-1],"split_conditions":[7.625E0,1.855E1,7.32E1,4.065E2,4.45345E0,6.24E0,1.141E1,1.6771127E-2,-1.9830352E-1,-2.6839486E-1,-2.144463E-2,-1.4565797E-1,9.708037E-2,7.1059465E-2,-1.7182175E-2],"split_indices":[2,10,6,9,7,12,12,0,0,0,0,0,0,0,0],"split_type":[0,0,0,0,0,0,0,0,0,0,0,0,0,0,0],"sum_hessian":[3.39E2,1.42E2,1.97E2,1.02E2,4E1,4E1,1.57E2,9.7E1,5E0,7E0,3.3E1,3E0,3.7E1,2.3E1,1.34E2],"tree_param":{"num_deleted":"0","num_feature":"13","num_nodes":"15","size_leaf_vector":"0"}},{"base_weights":[-8.922717E-4,-2.5611274E-2,1.0211709E-1,-1.6313974E-2,-6.514249E-1,1.599309E0,5.4478616E-2,5.8783084E-1,-2.2966271E-2,7.6055527E-3,-8.736369E-1,8.0510044E-1,5.172714E-3],"categories":[],"categories_nodes":[],"categories_segments":[],"categories_sizes":[],"default_left":[true,true,true,true,true,false,true,false,false,false,false,false,false],"id":70,"left_children":[1,3,5,7,9,-1,11,-1,-1,-1,-1,-1,-1],"loss_changes":[8.6835355E-1,1.5894264E0,4.6202517E0,1.1066552E0,5.9242225E-1,0E0,2.4014912E0,0E0,0E0,0E0,0E0,0E0,0E0],"parents":[2147483647,0,0,1,1,2,2,3,3,4,4,6,6],"right_children":[2,4,6,8,10,-1,12,-1,-1,-1,-1,-1,-1],"split_conditions":[1.8404999E1,1.8134998E1,1.4746499E-1,4.968E0,7.34995E-1,4.797927E-1,1.8779999E1,1.7634925E-1,-6.8898816E-3,2.2816658E-3,-2.6209107E-1,2.4153014E-1,1.5518143E-3],"split_indices":[12,12,0,5,0,0,12,0,0,0,0,0,0],"split_type":[0,0,0,0,0,0,0,0,0,0,0,0,0],"sum_hessian":[3.39E2,2.74E2,6.5E1,2.71E2,3E0,1E0,6.4E1,2E0,2.69E2,1E0,2E0,3E0,6.1E1],"tree_param":{"num_deleted":"0","num_feature":"13","num_nodes":"13","size_leaf_vector":"0"}},{"base_weights":[1.2354122E-3,-2.2477695E-1,1.0908004E-2,1.4055507E-1,-4.433564E-1,6.035881E-1,5.403548E-3,2.5751495E-1,1.769638E-2,-8.647915E-1,6.674995E-2,7.982521E-1,1.0713005E-1,-5.4604834E-4,3.862869E-1],"categories":[],"categories_nodes":[],"categories_segments":[],"categories_sizes":[],"default_left":[true,true,true,true,true,true,true,false,false,false,false,false,false,false,false],"id":71,"left_children":[1,3,5,7,9,11,13,-1,-1,-1,-1,-1,-1,-1,-1],"loss_changes":[7.457345E-1,1.1802729E0,1.0635372E0,8.166015E-2,1.9925154E0,2.0441079E-1,7.366942E-1,0E0,0E0,0E0,0E0,0E0,0E0,0E0,0E0],"parents":[2147483647,0,0,1,1,2,2,3,3,4,4,5,5,6,6],"right_children":[2,4,6,8,10,12,14,-1,-1,-1,-1,-1,-1,-1,-1],"split_conditions":[3.5349998E0,2.975E0,3.5749998E0,1.495E1,5E-1,2.2389999E-1,8.2815E0,7.725449E-2,5.3089145E-3,-2.5943747E-1,2.0024987E-2,2.3947564E-1,3.213902E-2,-1.638145E-4,1.1588608E-1],"split_indices":[12,12,12,10,3,0,5,0,0,0,0,0,0,0,0],"split_type":[0,0,0,0,0,0,0,0,0,0,0,0,0,0,0],"sum_hessian":[3.39E2,1.3E1,3.26E2,5E0,8E0,2E0,3.24E2,2E0,3E0,4E0,4E0,1E0,1E0,3.2E2,4E0],"tree_param":{"num_deleted":"0","num_feature":"13","num_nodes":"15","size_leaf_vector":"0"}},{"base_weights":[1.5428936E-3,-4.054826E-2,5.1448796E-2,1.7037623E-2,-3.2716966E-1,2.2979248E-1,-1.4132802E-2,-1.419572E-1,7.171654E-2,1.3965139E-1,-5.5611545E-1,4.469119E-2,3.538737E-1,2.1726935E-1,-1.1394691E-1],"categories":[],"categories_nodes":[],"categories_segments":[],"categories_sizes":[],"default_left":[true,true,true,true,true,true,true,false,false,false,false,false,false,false,false],"id":72,"left_children":[1,3,5,7,9,11,13,-1,-1,-1,-1,-1,-1,-1,-1],"loss_changes":[7.162891E-1,3.0590632E0,1.8278337E0,1.3576987E0,3.3908405E0,9.488239E-1,2.680935E0,0E0,0E0,0E0,0E0,0E0,0E0,0E0,0E0],"parents":[2147483647,0,0,1,1,2,2,3,3,4,4,5,5,6,6],"right_children":[2,4,6,8,10,12,14,-1,-1,-1,-1,-1,-1,-1,-1],"split_conditions":[3.92845E2,3.90735E2,3.9502502E2,1.3352E-1,8.6865E-2,1.7849998E1,1.7849998E1,-4.258716E-2,2.1514963E-2,4.189542E-2,-1.6683464E-1,1.3407358E-2,1.06162116E-1,6.518081E-2,-3.4184072E-2],"split_indices":[11,11,11,0,0,10,10,0,0,0,0,0,0,0,0],"split_type":[0,0,0,0,0,0,0,0,0,0,0,0,0,0,0],"sum_hessian":[3.39E2,1.84E2,1.55E2,1.54E2,3E1,4.1E1,1.14E2,3.9E1,1.15E2,1E1,2E1,1.7E1,2.4E1,3.4E1,8E1],"tree_param":{"num_deleted":"0","num_feature":"13","num_nodes":"15","size_leaf_vector":"0"}},{"base_weights":[1.0932306E-3,-1.7801142E-1,1.2248993E-2,-3.4109592E-1,1.0925233E-1,7.642412E-1,2.7514524E-3,1.7620087E-1,-3.988874E-1,4.5958996E-1,-8.41252E-2,9.75661E-1,6.4991E-2,-1.3274964E-2,2.300429E-1],"categories":[],"categories_nodes":[],"categories_segments":[],"categories_sizes":[],"default_left":[true,true,true,true,true,true,true,false,false,false,false,false,false,false,false],"id":73,"left_children":[1,3,5,7,9,11,13,-1,-1,-1,-1,-1,-1,-1,-1],"loss_changes":[6.815171E-1,9.742309E-1,2.2905037E0,4.589237E-1,5.8064246E-1,5.279319E-1,1.161422E0,0E0,0E0,0E0,0E0,0E0,0E0,0E0,0E0],"parents":[2147483647,0,0,1,1,2,2,3,3,4,4,5,5,6,6],"right_children":[2,4,6,8,10,12,14,-1,-1,-1,-1,-1,-1,-1,-1],"split_conditions":[1.0041E2,2.3015E1,2.34065E2,1.33772E0,6.465E-1,6.5900004E-1,7.155E-1,5.2860264E-2,-1.19666226E-1,1.3787699E-1,-2.523756E-2,2.926983E-1,1.94973E-2,-3.9824895E-3,6.901287E-2],"split_indices":[11,12,11,0,4,4,4,0,0,0,0,0,0,0,0],"split_type":[0,0,0,0,0,0,0,0,0,0,0,0,0,0,0],"sum_hessian":[3.39E2,1.9E1,3.2E2,1.2E1,7E0,3E0,3.17E2,1E0,1.1E1,2E0,5E0,2E0,1E0,2.97E2,2E1],"tree_param":{"num_deleted":"0","num_feature":"13","num_nodes":"15","size_leaf_vector":"0"}},{"base_weights":[2.009588E-3,-1.07132524E-1,1.8172024E-2,-1.5553066E-2,-4.1694736E-1,2.6959154E-1,-5.927535E-3,-1.3119614E-1,2.4868602E-1,-1.5609589E-1,-5.648324E-1,1.4792328E0,1.620366E-1,1.5541176E-2,-4.026753E-1],"categories":[],"categories_nodes":[],"categories_segments":[],"categories_sizes":[],"default_left":[true,true,true,true,true,true,true,false,false,false,false,false,false,false,false],"id":74,"left_children":[1,3,5,7,9,11,13,-1,-1,-1,-1,-1,-1,-1,-1],"loss_changes":[6.017076E-1,1.2419128E0,1.8011506E0,1.1021363E0,2.9759216E-1,3.1429858E0,2.3230622E0,0E0,0E0,0E0,0E0,0E0,0E0,0E0,0E0],"parents":[2147483647,0,0,1,1,2,2,3,3,4,4,5,5,6,6],"right_children":[2,4,6,8,10,12,14,-1,-1,-1,-1,-1,-1,-1,-1],"split_conditions":[5.09E0,4.6949997E0,3.105E0,4.1499996E0,2.355E2,2.6694498E0,6.9934998E0,-3.9358843E-2,7.460581E-2,-4.682877E-2,-1.6944972E-1,4.4376984E-1,4.861098E-2,4.662353E-3,-1.20802596E-1],"split_indices":[12,12,2,12,9,7,5,0,0,0,0,0,0,0,0],"split_type":[0,0,0,0,0,0,0,0,0,0,0,0,0,0,0],"sum_hessian":[3.39E2,4.3E1,2.96E2,3.4E1,9E0,2.5E1,2.71E2,2.4E1,1E1,4E0,5E0,1E0,2.4E1,2.58E2,1.3E1],"tree_param":{"num_deleted":"0","num_feature":"13","num_nodes":"15","size_leaf_vector":"0"}},{"base_weights":[1.981379E-3,1.2898242E-1,-1.1632309E-2,2.6636225E-1,-3.3362484E-1,-4.441935E-1,-3.0283504E-3,3.9412588E-1,-2.2520415E-1,-5.6194913E-1,3.5186768E-2,-1.2899017E-1,-7.1640015E-1,1.7263709E-2,-1.5400733E-1],"categories":[],"categories_nodes":[],"categories_segments":[],"categories_sizes":[],"default_left":[true,true,true,true,true,true,true,false,false,false,false,false,false,false,false],"id":75,"left_children":[1,3,5,7,9,11,13,-1,-1,-1,-1,-1,-1,-1,-1],"loss_changes":[5.893443E-1,2.1861112E0,1.1449504E0,1.7216709E0,6.9344246E-1,4.2239404E-1,9.309521E-1,0E0,0E0,0E0,0E0,0E0,0E0,0E0,0E0],"parents":[2147483647,0,0,1,1,2,2,3,3,4,4,5,5,6,6],"right_children":[2,4,6,8,10,12,14,-1,-1,-1,-1,-1,-1,-1,-1],"split_conditions":[2.78E1,7.7405996E0,2.9099998E1,1.7561E-1,3.93755E2,6.2615E0,6.1387997E0,1.1823777E-1,-6.756125E-2,-1.6858475E-1,1.0556031E-2,-3.8697053E-2,-2.1492006E-1,5.179113E-3,-4.62022E-2],"split_indices":[6,7,6,0,11,5,7,0,0,0,0,0,0,0,0],"split_type":[0,0,0,0,0,0,0,0,0,0,0,0,0,0,0],"sum_hessian":[3.39E2,3.2E1,3.07E2,2.5E1,7E0,5E0,3.02E2,2E1,5E0,4E0,3E0,3E0,2E0,2.67E2,3.5E1],"tree_param":{"num_deleted":"0","num_feature":"13","num_nodes":"15","size_leaf_vector":"0"}},{"base_weights":[2.0473004E-4,3.3649406E-1,-4.8001846E-3,-2.7133393E-1,5.055831E-3,7.1280956E-2,-5.2624184E-1,4.534701E-1,-1.061913E-2],"categories":[],"categories_nodes":[],"categories_segments":[],"categories_sizes":[],"default_left":[true,false,true,true,true,false,false,false,false],"id":76,"left_children":[1,-1,3,5,7,-1,-1,-1,-1],"loss_changes":[5.7386905E-1,0E0,8.8403064E-1,1.0855341E0,2.2892003E0,0E0,0E0,0E0,0E0],"parents":[2147483647,0,0,2,2,3,3,4,4],"right_children":[2,-1,4,6,8,-1,-1,-1,-1],"split_conditions":[1.2437999E0,1.0094822E-1,1.4525E0,6.8200004E-1,1.564E0,2.1384288E-2,-1.5787256E-1,1.3604105E-1,-3.185739E-3],"split_indices":[7,0,7,4,7,0,0,0,0],"split_type":[0,0,0,0,0,0,0,0,0],"sum_hessian":[3.39E2,4E0,3.35E2,1.1E1,3.24E2,5E0,6E0,1E1,3.14E2],"tree_param":{"num_deleted":"0","num_feature":"13","num_nodes":"9","size_leaf_vector":"0"}},{"base_weights":[4.2909174E-4,-9.1423884E-2,2.0839326E-2,-3.0360276E-1,9.390099E-3,-2.585976E-2,1.333464E-1,3.4389386E-1,-6.0566515E-1,3.823955E-1,-1.3078037E-1,-7.7429456E-3,-7.2362024E-1,2.4992251E-1,-2.4053569E-1],"categories":[],"categories_nodes":[],"categories_segments":[],"categories_sizes":[],"default_left":[true,true,true,true,true,true,true,false,false,false,false,false,false,false,false],"id":77,"left_children":[1,3,5,7,9,11,13,-1,-1,-1,-1,-1,-1,-1,-1],"loss_changes":[6.3931704E-1,1.3290677E0,1.469308E0,4.1199718E0,2.2982366E0,2.4973543E0,3.6341445E0,0E0,0E0,0E0,0E0,0E0,0E0,0E0,0E0],"parents":[2147483647,0,0,1,1,2,2,3,3,4,4,5,5,6,6],"right_children":[2,4,6,8,10,12,14,-1,-1,-1,-1,-1,-1,-1,-1],"split_conditions":[3.59745E2,1.70655E0,1.4655E1,8.555E1,4.4890747E0,1.43E1,6.173E0,1.0316816E-1,-1.8169954E-1,1.1471865E-1,-3.9234113E-2,-2.3228838E-3,-2.1708608E-1,7.497676E-2,-7.216071E-2],"split_indices":[11,0,12,6,0,12,5,0,0,0,0,0,0,0,0],"split_type":[0,0,0,0,0,0,0,0,0,0,0,0,0,0,0],"sum_hessian":[3.39E2,6.1E1,2.78E2,1.9E1,4.2E1,1.97E2,8.1E1,6E0,1.3E1,1.1E1,3.1E1,1.93E2,4E0,6.2E1,1.9E1],"tree_param":{"num_deleted":"0","num_feature":"13","num_nodes":"15","size_leaf_vector":"0"}},{"base_weights":[-3.454124E-4,-8.137918E-3,1.9629207E-1,-8.093195E-2,2.1889398E-2,3.7610504E-1,-1.156262E-2,-3.0260268E-1,2.9443366E-2,2.842987E-1,-4.084708E-3,-5.4066975E-2,5.5898726E-1,-1.6593234E-1,8.3371736E-2],"categories":[],"categories_nodes":[],"categories_segments":[],"categories_sizes":[],"default_left":[true,true,true,true,true,true,true,false,false,false,false,false,false,false,false],"id":78,"left_children":[1,3,5,7,9,11,13,-1,-1,-1,-1,-1,-1,-1,-1],"loss_changes":[5.2257895E-1,7.1871704E-1,4.902233E-1,2.3577394E0,1.5892537E0,5.809185E-1,1.16418995E-1,0E0,0E0,0E0,0E0,0E0,0E0,0E0,0E0],"parents":[2147483647,0,0,1,1,2,2,3,3,4,4,5,5,6,6],"right_children":[2,4,6,8,10,12,14,-1,-1,-1,-1,-1,-1,-1,-1],"split_conditions":[2.105E1,5.934E0,3.3494002E-1,1.3815E1,6.0035E0,3.88385E2,1.9802499E0,-9.078081E-2,8.833011E-3,8.528961E-2,-1.2254125E-3,-1.6220093E-2,1.6769618E-1,-4.9779706E-2,2.5011523E-2],"split_indices":[10,5,0,12,5,11,7,0,0,0,0,0,0,0,0],"split_type":[0,0,0,0,0,0,0,0,0,0,0,0,0,0,0],"sum_hessian":[3.39E2,3.27E2,1.2E1,9.5E1,2.32E2,6E0,6E0,3.1E1,6.4E1,2E1,2.12E2,2E0,4E0,2E0,4E0],"tree_param":{"num_deleted":"0","num_feature":"13","num_nodes":"15","size_leaf_vector":"0"}},{"base_weights":[1.3663768E-4,4.114182E-2,-4.849218E-2,1.8236713E-2,6.209807E-1,-5.826402E-1,-3.421058E-2,-3.5510534E-1,5.7062346E-2,8.900676E-1,-4.9677038E-1,-1.7314292E-1,6.9393553E-3],"categories":[],"categories_nodes":[],"categories_segments":[],"categories_sizes":[],"default_left":[true,true,true,true,true,false,true,false,false,false,false,false,false],"id":79,"left_children":[1,3,5,7,9,-1,11,-1,-1,-1,-1,-1,-1],"loss_changes":[6.7996645E-1,2.4457102E0,1.1701114E0,2.6149116E0,2.5475645E0,0E0,8.7591124E-1,0E0,0E0,0E0,0E0,0E0,0E0],"parents":[2147483647,0,0,1,1,2,2,3,3,4,4,6,6],"right_children":[2,4,6,8,10,-1,12,-1,-1,-1,-1,-1,-1],"split_conditions":[8.255E1,1.8095E1,4.705E-1,5.7605E0,7.09E-1,-1.7479205E-1,8.87E1,-1.06531605E-1,1.7118705E-2,2.670203E-1,-1.4903112E-1,-5.194288E-2,2.0818068E-3],"split_indices":[6,12,4,5,4,0,6,0,0,0,0,0,0],"split_type":[0,0,0,0,0,0,0,0,0,0,0,0,0],"sum_hessian":[3.39E2,1.84E2,1.55E2,1.78E2,6E0,3E0,1.52E2,1.6E1,1.62E2,5E0,1E0,3.4E1,1.18E2],"tree_param":{"num_deleted":"0","num_feature":"13","num_nodes":"13","size_leaf_vector":"0"}},{"base_weights":[-4.810656E-4,-9.319192E-2,1.5078226E-2,-2.8238919E-2,-8.168535E-1,1.5856019E-1,-1.379757E-2,-7.335021E-2,6.4280635E-1,-1.1187509E0,4.441929E-2,-1.2956204E-1,3.0218193E-1,-3.9594942E-1,1.4756723E-2],"categories":[],"categories_nodes":[],"categories_segments":[],"categories_sizes":[],"default_left":[true,true,true,true,true,true,true,false,false,false,false,false,false,false,false],"id":80,"left_children":[1,3,5,7,9,11,13,-1,-1,-1,-1,-1,-1,-1,-1],"loss_changes":[4.918604E-1,2.280129E0,1.2119893E0,1.4396491E0,1.0897579E0,2.0668015E0,2.6683893E0,0E0,0E0,0E0,0E0,0E0,0E0,0E0,0E0],"parents":[2147483647,0,0,1,1,2,2,3,3,4,4,5,5,6,6],"right_children":[2,4,6,8,10,12,14,-1,-1,-1,-1,-1,-1,-1,-1],"split_conditions":[4.9565002E-2,4.7035E-2,4.13E1,2.06E1,5.65E1,2.075E1,5.185E1,-2.2005064E-2,1.9284192E-1,-3.356253E-1,1.3325787E-2,-3.8868614E-2,9.065458E-2,-1.1878483E-1,4.427017E-3],"split_indices":[0,0,6,10,1,6,6,0,0,0,0,0,0,0,0],"split_type":[0,0,0,0,0,0,0,0,0,0,0,0,0,0,0],"sum_hessian":[3.39E2,4.8E1,2.91E2,4.5E1,3E0,4.8E1,2.43E2,4.3E1,2E0,2E0,1E0,1.6E1,3.2E1,1.6E1,2.27E2],"tree_param":{"num_deleted":"0","num_feature":"13","num_nodes":"15","size_leaf_vector":"0"}},{"base_weights":[-9.6649985E-4,4.4815607E-2,-3.2849725E-2,1.3840711E-2,7.3428154E-1,6.033036E-3,-1.801924E-1,4.93152E-1,-8.387815E-3,-1.3548585E-2,6.15773E-1,-2.782083E-1,3.4963104E-1],"categories":[],"categories_nodes":[],"categories_segments":[],"categories_sizes":[],"default_left":[true,true,true,true,false,true,true,false,false,false,false,false,false],"id":81,"left_children":[1,3,5,7,-1,9,11,-1,-1,-1,-1,-1,-1],"loss_changes":[4.9776384E-1,2.9796963E0,1.1526343E0,1.4424782E0,0E0,1.9186944E0,2.278377E0,0E0,0E0,0E0,0E0,0E0,0E0],"parents":[2147483647,0,0,1,1,2,2,3,3,5,5,6,6],"right_children":[2,4,6,8,-1,10,12,-1,-1,-1,-1,-1,-1],"split_conditions":[6.8149994E1,6.59E1,3.3246002E0,2.6191E0,2.2028448E-1,3.2438998E0,9.57E1,1.479456E-1,-2.5163447E-3,-4.064576E-3,1.8473192E-1,-8.346249E-2,1.0488932E-1],"split_indices":[6,6,7,7,0,7,6,0,0,0,0,0,0],"split_type":[0,0,0,0,0,0,0,0,0,0,0,0,0],"sum_hessian":[3.39E2,1.39E2,2E2,1.34E2,5E0,1.59E2,4.1E1,5E0,1.29E2,1.55E2,4E0,3.5E1,6E0],"tree_param":{"num_deleted":"0","num_feature":"13","num_nodes":"13","size_leaf_vector":"0"}},{"base_weights":[9.934327E-4,2.310467E-2,-5.798055E-2,-1.9727038E-2,1.2216617E-1,-2.1450458E-1,3.1682745E-2,-6.254611E-2,2.3797649E-1,2.3473278E-1,-5.450816E-2,-7.1581334E-1,-8.1516504E-2,-1.4894251E-2,6.8748426E-1],"categories":[],"categories_nodes":[],"categories_segments":[],"categories_sizes":[],"default_left":[true,true,true,true,true,true,true,false,false,false,false,false,false,false,false],"id":82,"left_children":[1,3,5,7,9,11,13,-1,-1,-1,-1,-1,-1,-1,-1],"loss_changes":[4.4469544E-1,1.0546672E0,1.3120009E0,1.9349095E0,1.5043672E0,2.2083645E0,1.8429555E0,0E0,0E0,0E0,0E0,0E0,0E0,0E0,0E0],"parents":[2147483647,0,0,1,1,2,2,3,3,4,4,5,5,6,6],"right_children":[2,4,6,8,10,12,14,-1,-1,-1,-1,-1,-1,-1,-1],"split_conditions":[9.395E1,3.20455E-1,4.175E2,1.4549999E1,1.4065001E1,9.51E1,2.44985E0,-1.8763835E-2,7.139295E-2,7.041983E-2,-1.6352449E-2,-2.1474402E-1,-2.4454953E-2,-4.4682752E-3,2.0624529E-1],"split_indices":[6,0,9,12,12,6,7,0,0,0,0,0,0,0,0],"split_type":[0,0,0,0,0,0,0,0,0,0,0,0,0,0,0],"sum_hessian":[3.39E2,2.47E2,9.2E1,1.73E2,7.4E1,3.3E1,5.9E1,1.49E2,2.4E1,4.5E1,2.9E1,6E0,2.7E1,5.6E1,3E0],"tree_param":{"num_deleted":"0","num_feature":"13","num_nodes":"15","size_leaf_vector":"0"}},{"base_weights":[8.994986E-4,1.0773577E-1,-1.4110612E-2,1.1827583E0,5.2667942E-2,-2.1829768E-1,1.117884E-2,-1.0308346E-1,1.7904224E-1,-1.4162913E-1,-9.377734E-1,-3.6295414E-1,1.9704103E-2],"categories":[],"categories_nodes":[],"categories_segments":[],"categories_sizes":[],"default_left":[true,true,true,false,true,true,true,false,false,false,false,false,false],"id":83,"left_children":[1,3,5,-1,7,9,11,-1,-1,-1,-1,-1,-1],"loss_changes":[5.4675245E-1,2.4240713E0,1.5464102E0,0E0,8.2545817E-1,1.687502E0,8.587702E-1,0E0,0E0,0E0,0E0,0E0,0E0],"parents":[2147483647,0,0,1,1,2,2,4,4,5,5,6,6],"right_children":[2,4,6,-1,8,10,12,-1,-1,-1,-1,-1,-1],"split_conditions":[3.105E0,2.64925E0,3.5E0,3.5482752E-1,3.635E1,6.8185E0,3.5265E-2,-3.092504E-2,5.3712673E-2,-4.248874E-2,-2.8133205E-1,-1.0888625E-1,5.9112315E-3],"split_indices":[2,7,8,0,6,5,0,0,0,0,0,0,0],"split_type":[0,0,0,0,0,0,0,0,0,0,0,0,0],"sum_hessian":[3.39E2,4.1E1,2.98E2,1E0,4E1,3.2E1,2.66E2,1.8E1,2.2E1,3E1,2E0,5E0,2.61E2],"tree_param":{"num_deleted":"0","num_feature":"13","num_nodes":"13","size_leaf_vector":"0"}},{"base_weights":[4.8515658E-4,6.08288E-2,-2.115394E-2,1.2946035E-1,-1.13089636E-1,-1.8434373E-1,8.825195E-3,1.9592797E-2,3.0446473E-1,-7.538264E-1,3.2597831E-3,-2.7648149E-2,-4.9560812E-1,3.3314597E-2,-2.429779E-1],"categories":[],"categories_nodes":[],"categories_segments":[],"categories_sizes":[],"default_left":[true,true,true,true,true,true,true,false,false,false,false,false,false,false,false],"id":84,"left_children":[1,3,5,7,9,11,13,-1,-1,-1,-1,-1,-1,-1,-1],"loss_changes":[4.4525263E-1,1.088907E0,1.2295913E0,1.2438092E0,1.9407403E0,1.8884739E0,1.3215607E0,0E0,0E0,0E0,0E0,0E0,0E0,0E0,0E0],"parents":[2147483647,0,0,1,1,2,2,3,3,4,4,5,5,6,6],"right_children":[2,4,6,8,10,12,14,-1,-1,-1,-1,-1,-1,-1,-1],"split_conditions":[2.78E2,7.9850006E1,3.045E2,2.495E2,6.8765E-2,2.98E2,7.0284996E0,5.8778394E-3,9.1339424E-2,-2.2614792E-1,9.77935E-4,-8.294445E-3,-1.4868245E-1,9.994379E-3,-7.289337E-2],"split_indices":[9,6,9,9,0,9,5,0,0,0,0,0,0,0,0],"split_type":[0,0,0,0,0,0,0,0,0,0,0,0,0,0,0],"sum_hessian":[3.39E2,8.9E1,2.5E2,6.4E1,2.5E1,3.8E1,2.12E2,4E1,2.4E1,3E0,2.2E1,2.6E1,1.2E1,1.94E2,1.8E1],"tree_param":{"num_deleted":"0","num_feature":"13","num_nodes":"15","size_leaf_vector":"0"}},{"base_weights":[-6.834591E-4,1.8943994E-1,-7.6159737E-3,3.722795E-1,-2.6930904E-1,-2.539836E-1,9.0333587E-4,2.4889016E-1,6.7969704E-1,4.9849194E-2,-6.133919E-1,-7.6013565E-2,-5.464277E-1,1.4749552E-1,-1.0451962E-2],"categories":[],"categories_nodes":[],"categories_segments":[],"categories_sizes":[],"default_left":[true,true,true,true,true,true,true,false,false,false,false,false,false,false,false],"id":85,"left_children":[1,3,5,7,9,11,13,-1,-1,-1,-1,-1,-1,-1,-1],"loss_changes":[4.4957402E-1,1.1067878E0,6.9076157E-1,1.7221844E-1,4.6984452E-1,5.3097326E-1,5.3254837E-1,0E0,0E0,0E0,0E0,0E0,0E0,0E0,0E0],"parents":[2147483647,0,0,1,1,2,2,3,3,4,4,5,5,6,6],"right_children":[2,4,6,8,10,12,14,-1,-1,-1,-1,-1,-1,-1,-1],"split_conditions":[1.605E0,7.2805004E0,2.637E-2,7.2615004E0,2.756E-2,4.595E-1,3.095E0,7.466705E-2,2.0390911E-1,1.4954759E-2,-1.8401757E-1,-2.280407E-2,-1.6392833E-1,4.424866E-2,-3.1355887E-3],"split_indices":[2,5,0,5,0,4,2,0,0,0,0,0,0,0,0],"split_type":[0,0,0,0,0,0,0,0,0,0,0,0,0,0,0],"sum_hessian":[3.39E2,1.1E1,3.28E2,8E0,3E0,1E1,3.18E2,7E0,1E0,2E0,1E0,7E0,3E0,2.2E1,2.96E2],"tree_param":{"num_deleted":"0","num_feature":"13","num_nodes":"15","size_leaf_vector":"0"}},{"base_weights":[-5.8460236E-4,8.542508E-3,-1.3290113E-1,-3.116467E-3,2.0367962E-1,6.3999556E-2,-2.7414003E-1,2.819325E-1,-1.6914284E-2,-1.030767E-1,7.004505E-1,3.344776E-1,-1.7206542E-1,-3.6803108E-1,2.9122591E-2],"categories":[],"categories_nodes":[],"categories_segments":[],"categories_sizes":[],"default_left":[true,true,true,true,true,true,true,false,false,false,false,false,false,false,false],"id":86,"left_children":[1,3,5,7,9,11,13,-1,-1,-1,-1,-1,-1,-1,-1],"loss_changes":[4.1174224E-1,7.2639126E-1,6.293657E-1,1.1925507E0,2.815177E0,6.96056E-1,3.8087535E-1,0E0,0E0,0E0,0E0,0E0,0E0,0E0,0E0],"parents":[2147483647,0,0,1,1,2,2,3,3,4,4,5,5,6,6],"right_children":[2,4,6,8,10,12,14,-1,-1,-1,-1,-1,-1,-1,-1],"split_conditions":[2.661E1,7.29E-1,3.5814E2,5.528E0,3.7368E2,1.6328E0,3.14E1,8.457975E-2,-5.0742854E-3,-3.092301E-2,2.1013515E-1,1.0034329E-1,-5.161963E-2,-1.1040933E-1,8.736778E-3],"split_indices":[12,4,11,5,11,7,12,0,0,0,0,0,0,0,0],"split_type":[0,0,0,0,0,0,0,0,0,0,0,0,0,0,0],"sum_hessian":[3.39E2,3.18E2,2.1E1,3.01E2,1.7E1,9E0,1.2E1,1.3E1,2.88E2,1.1E1,6E0,4E0,5E0,9E0,3E0],"tree_param":{"num_deleted":"0","num_feature":"13","num_nodes":"15","size_leaf_vector":"0"}},{"base_weights":[1.9549341E-4,-2.8823394E-2,4.8483208E-2,-1.7575556E-2,-8.103135E-1,2.9816464E-1,7.5575425E-3,-2.2909409E-1,-2.1906532E-4,3.961253E-2,4.5909664E-1,-1.6161202E-2,8.668194E-1],"categories":[],"categories_nodes":[],"categories_segments":[],"categories_sizes":[],"default_left":[true,true,true,true,false,true,true,false,false,false,false,false,false],"id":87,"left_children":[1,3,5,7,-1,9,11,-1,-1,-1,-1,-1,-1],"loss_changes":[4.778244E-1,1.8580441E0,1.3056991E0,7.7457714E-1,0E0,7.307817E-1,2.2762566E0,0E0,0E0,0E0,0E0,0E0,0E0],"parents":[2147483647,0,0,1,1,2,2,3,3,5,5,6,6],"right_children":[2,4,6,8,-1,10,12,-1,-1,-1,-1,-1,-1],"split_conditions":[3.9452E0,3.92585E0,4.2626E0,6.6149995E-2,-2.4309407E-1,3.91615E2,9.57E1,-6.872823E-2,-6.57196E-5,1.188376E-2,1.37729E-1,-4.8483605E-3,2.6004583E-1],"split_indices":[7,7,7,0,0,11,6,0,0,0,0,0,0],"split_type":[0,0,0,0,0,0,0,0,0,0,0,0,0],"sum_hessian":[3.39E2,2.12E2,1.27E2,2.1E2,2E0,1.7E1,1.1E2,1.5E1,1.95E2,7E0,1E1,1.08E2,2E0],"tree_param":{"num_deleted":"0","num_feature":"13","num_nodes":"13","size_leaf_vector":"0"}},{"base_weights":[4.098205E-4,4.3047566E-2,-3.388302E-2,7.348305E-2,-2.6220813E-1,-2.9305977E-1,9.255968E-3,2.608349E-2,3.3858135E-1,-5.1259637E-1,6.140818E-2,-1.2878609E-1,-4.6006328E-1,1.6596699E-1,-3.8079545E-2],"categories":[],"categories_nodes":[],"categories_segments":[],"categories_sizes":[],"default_left":[true,true,true,true,true,true,true,false,false,false,false,false,false,false,false],"id":88,"left_children":[1,3,5,7,9,11,13,-1,-1,-1,-1,-1,-1,-1,-1],"loss_changes":[4.985962E-1,1.4314396E0,2.1158504E0,1.7377791E0,1.1658937E0,6.814759E-1,1.2154534E0,0E0,0E0,0E0,0E0,0E0,0E0,0E0,0E0],"parents":[2147483647,0,0,1,1,2,2,3,3,4,4,5,5,6,6],"right_children":[2,4,6,8,10,12,14,-1,-1,-1,-1,-1,-1,-1,-1],"split_conditions":[1.7644E-1,4.065E2,2.5651002E-1,1.35705E-1,3.92815E2,7.31E1,6.1913E-1,7.825048E-3,1.0157441E-1,-1.5377891E-1,1.8422455E-2,